svm_type nu_svc
kernel_type rbf
gamma 0.1
nr_class 3
total_sv 157
rho 0.0669976 0.163157 0.136174
label 0 1 2
nr_sv 61 52 44
SV
2.78472723857741 0.5194956355433786 1:0.72829235 2:0.70434833 3:0.70622939 4:0.74363589 5:0.74368519 6:0.71877551 7:0.64343047 8:0.59180635 9:0.63202512 10:0.67141402 11:0.66413975 12:0.62557435 13:0.55872703 14:0.55351132 15:0.60423583 16:0.65241939 17:0.67225045 18:0.65689808 19:0.6040504 20:0.57584846 21:0.56291062 22:0.57537353 23:0.58330947 24:0.56446218 25:0.55167073 26:0.58345914 27:0.6185329 28:0.63509303 29:0.57766402 30:0.5302732 31:0.50470418 32:0.50535005 33:0.52310956 34:0.53117931 35:0.52340043 36:0.52616578 37:0.49071425 38:0.54280674 39:0.58890855 40:0.57451481 41:0.52869093 42:0.50226778 43:0.56871551 44:0.63540065 45:0.5872733 46:0.53166217 47:0.50251502 48:0.51536971 49:0.5432868 50:0.52903807 51:0.5136652 52:0.49155161 53:0.50766611 54:0.50221294 55:0.50495833 56:0.5182842 57:0.53110546 58:0.58421427 59:0.61337626 60:0.55024737 61:0.49993831 62:0.48322114 63:0.49407163 64:0.52196318 65:0.54810238 66:0.54847503 67:0.50179332 68:0.46393237 69:0.46688035 70:0.47184926 71:0.53570914 72:0.55410427 73:0.56076884 74:0.52687722 75:0.46855417 76:0.41917077 77:0.44918686 78:0.48959899 79:0.51255554 80:0.50283515 81:0.51211035 82:0.51080364 83:0.52313697 84:0.52926946 85:0.51372331 86:0.48142418 87:0.46837434 88:0.49452421 89:0.53263146 90:0.56058806 91:0.55416656 92:0.53921801 93:0.57281637 94:0.6136021 95:0.61323637 96:0.5998292 97:0.56606305 98:0.58248001 99:0.61210024 100:0.61938095 101:0.61369735 102:0.62586194 103:0.6484105 104:0.69257313 105:0.69729763 106:0.66113323 107:0.592475 108:0.58845967 109:0.64315534 110:0.69264609 111:0.64978552 112:0.58659112 113:0.52567464 114:0.53804928 115:0.56047189 116:0.53697491 117:0.5754028 118:0.58638108 119:0.56520802 120:0.5187698 121:0.48172671 122:0.47293109 123:0.5370934 124:0.53127503 125:0.55806899 126:0.52395946 127:0.52407473 128:0.51052296 129:0.52225405 130:0.50261772 131:0.48633689 132:0.46644029 133:0.49389923 134:0.52432984 135:0.55720282 136:0.5390358 137:0.52415091 138:0.51266706 139:0.53961295 140:0.56082833 141:0.55526787 142:0.54227656 143:0.52458817 144:0.51757139 145:0.53760737 146:0.51132643 147:0.51450539 148:0.48758271 149:0.47226518 150:0.46688083 151:0.49409208 152:0.52403939 153:0.579934 154:0.5107609 155:0.49929333 156:0.46970475 157:0.49926218 158:0.49778029 159:0.46700582 160:0.42276049 161:0.45520878 162:0.468043 163:0.54218781 164:0.52516347 165:0.50859219 166:0.54031467 167:0.56495571 168:0.55881435 169:0.51967454 170:0.45157537 171:0.482144 172:0.5654515 173:0.5841952 174:0.60245329 175:0.57957989 176:0.54887331 177:0.53233266 178:0.50527012 179:0.51415408 180:0.58139449 181:0.61657423 182:0.62026989 183:0.59804475 184:0.51732045 185:0.47809702 186:0.44410366 187:0.43398923 188:0.41026872 189:0.45748389 190:0.48465237 191:0.47583815 192:0.4838903 193:0.50655222 194:0.50410378 195:0.52993256 196:0.47999108 197:0.46697935 198:0.47235578 199:0.45003214 200:0.41346487 201:0.42591804 202:0.46065864 203:0.50629991 204:0.46721354 205:0.47549382 206:0.49905354 207:0.49424866 208:0.46201694 209:0.45658797 210:0.42498496 211:0.4427765 212:0.4410353 213:0.40355724 214:0.44752839 215:0.48342699 216:0.47242597 217:0.43685359 218:0.39952838 219:0.39004874 220:0.41987944 221:0.47117734 222:0.52317971 223:0.50954062 224:0.5022074 225:0.48860085 226:0.48890939 227:0.50745976 228:0.49858421 229:0.48158497 230:0.47497848 231:0.48015976 232:0.48972726 233:0.49807027 234:0.48336056 235:0.47306213 236:0.50454897 237:0.5576759 238:0.52288604 239:0.44066402 240:0.37963182 241:0.44346935 242:0.50996304 243:0.49645641 244:0.48392978 245:0.48871097 246:0.47346127 247:0.47422382 248:0.4510712 249:0.50906014 250:0.57846141 251:0.54514694 252:0.47879544 253:0.42947617 254:0.43358356 255:0.44775423 256:0.45732775 257:0.46601698 258:0.45062694 259:0.41903463 260:0.38985589 261:0.33863792 262:0.37890178 263:0.39174533 264:0.40158743 265:0.42930052 266:0.46882835 267:0.49961069 268:0.48751393 269:0.38938981 270:0.34967008 271:0.36951879 272:0.40964884 273:0.45591742 274:0.43769279 275:0.39592752 276:0.40506655 277:0.40688998 278:0.42758071 279:0.4684431 280:0.45294574 281:0.43210912 282:0.41729018 283:0.38335025 284:0.368312 285:0.38140368 286:0.38752037 287:0.4374544 288:0.44893873 289:0.44106272 290:0.40652195 291:0.33452865 292:0.27324089 293:0.32161358 294:0.41233426 295:0.49679562 296:0.50045967 297:0.45199731 298:0.41244674 299:0.46972659 300:0.48867938 301:0.46001875 302:0.4351505 303:0.42601609 304:0.4065215 305:0.42518756 306:0.38462815 307:0.37096027 308:0.42620152 309:0.45864794 310:0.46867779 311:0.48802277 312:0.45936868 313:0.45690304 314:0.48682109 315:0.47817972 316:0.52415556 317:0.55502391 318:0.54519808 319:0.53627974 320:0.51117957 321:0.48158452 322:0.50553364 323:0.51009965 324:0.48704228 325:0.48206219 326:0.48814359 327:0.49118125 328:0.45953411 329:0.44405624 330:0.46407503 331:0.48800418 332:0.49615017 333:0.48157939 334:0.4639965 335:0.49037176 336:0.45867953 337:0.44720683 338:0.51598865 339:0.56361276 340:0.58377421 341:0.55143929 342:0.47803986 343:0.48179874 344:0.4927375 345:0.46997288 346:0.51318753 347:0.534796 348:0.55721724 349:0.5499416 350:0.49783838 351:0.47220942 352:0.47892043 353:0.48929602 354:0.51455694 355:0.5146262 356:0.48573092 357:0.44443125 358:0.4387114 359:0.50797975 360:0.55126876 361:0.58255577 362:0.59345549 363:0.56640178 364:0.53639501 365:0.55317861 366:0.55336636 367:0.56276745 368:0.51539713 369:0.50526643 370:0.56968808 371:0.63861811 372:0.64734125 373:0.59468693 374:0.58075231 375:0.59545833 376:0.58532441 377:0.55733854 378:0.53985089 379:0.50441003 380:0.56715137 381:0.59960568 382:0.59713954 383:0.6159994 384:0.58561808 385:0.60707551 386:0.65569961 387:0.65628743 388:0.62658226 389:0.61876708 390:0.59641141 391:0.66594136 392:0.65102112 393:0.58317101 394:0.53415054 395:0.56130368 396:0.62425923 397:0.66172385 398:0.65005875 399:0.66937077 400:0.69883853 401:0.67985135 402:0.64824229 403:0.60724843 404:0.57355708 405:0.59211212 406:0.6502744 407:0.70664251 408:0.67372352 409:0.60546494 410:0.59829336 411:0.66865885 412:0.73084676 413:0.72875702 414:0.71778435 415:0.69464052 416:0.70190132 417:0.73426825 418:0.75423545 419:0.80229545 420:0.83119071 421:0.78475296 422:0.79948592 423:0.80332565 424:0.75627637 425:0.73122317 426:0.68461955 427:0.65484506 428:0.71702921 429:0.71830761 430:0.69020557 431:0.7032029 432:0.73847044 433:0.78312701 434:0.81142932 435:0.78726369 436:0.79979867 437:0.78670514 438:0.77749312 439:0.76563847 440:0.75078326 441:0.75095755 442:0.73861122 443:0.6653266 444:0.66789907 445:0.69843704 446:0.72897869 447:0.73892117 448:0.72141033 449:0.70306116 450:0.70965695 451:0.70979452 452:0.62453806 453:0.60051322 454:0.67699122 455:0.75805473 456:0.76041627 457:0.73011255 458:0.63897592 459:0.62710643 460:0.61457884 461:0.60357273 462:0.60635853 463:0.63402933 464:0.6744433 465:0.69580507 466:0.65158433 467:0.60545284 468:0.53922403 469:0.53937459 470:0.5401116 471:0.54796898 472:0.55409545 473:0.53640473 474:0.4918848 475:0.51411271 476:0.50051546 477:0.56010622 478:0.57373458 479:0.58895409 480:0.62763149 481:0.65737063 482:0.61743808 483:0.60648352 484:0.58676028 485:0.57587075 486:0.55110097 487:0.53128201 488:0.53625375 489:0.57737726 490:0.60610479 491:0.62541956 492:0.64616978 493:0.66277546 494:0.66375315 495:0.64913499 496:0.6185106 497:0.58145076 498:0.57399344 499:0.58005899 500:0.61901569 501:0.66728663 502:0.62406921 503:0.57950324 504:0.6100328 505:0.65867454 506:0.70244682 507:0.71340233 508:0.67767102 509:0.71043158 510:0.76560175 511:0.77519292 512:0.79296261 513:0.76900607 514:0.68608332 515:0.65306717 516:0.64730644 517:0.68560976 518:0.69516283 519:0.68949133 520:0.70383859 521:0.72642666 522:0.68824643 523:0.62624764 524:0.61864585 525:0.68249357 526:0.72449678 527:0.7007103 528:0.62990707 529:0.62865663 530:0.65162522 531:0.65206951 532:0.66838467 533:0.66216063 534:0.69617355 535:0.74193889 536:0.70620525 537:0.68495548 538:0.67016864 539:0.7232607 540:0.81374115 541:0.81341588 542:0.76184708 543:0.72350377 544:0.68979985 545:0.68926638 546:0.70784652 547:0.71642512 548:0.77237225 549:0.7689029 550:0.74162751 551:0.7523753 552:0.78145784 553:0.86288804 554:0.95350558 555:0.97404432 556:0.97206944 557:0.92702341 558:0.92305082 559:1 560:0.97975862 561:0.92337841 562:0.81592196 563:0.74788362 564:0.75356585 565:0.722875 566:0.64103872 567:0.55627483 568:0.51903331 569:0.55079103 570:0.60284036 571:0.55294812 572:0.4839386 573:0.40598804 574:0.38470948 575:0.37263268 576:0.39906463 577:0.36740354 578:0.38234374 579:0.36840817 580:0.37944081 581:0.3868345 582:0.35279557 583:0.28875124 584:0.24572434 585:0.18035054 586:0.18107872 587:0.22212605 588:0.23963599 589:0.25281596 590:0.21459067 591:0.14947571 592:0.11264495 593:0.12274774 594:0.14304395 595:0.16414778 596:0.16715711 597:0.15595485 598:0.14092636 599:0.15799345 600:0.16665153 601:0.18898679 602:0.21458416 603:0.19319175 604:0.16766827 605:0.18888456 606:0.17262231 607:0.14365734 608:0.12126864 609:0.11059474 610:0.14131577 611:0.14608812 612:0.13646536 613:0.17018084 614:0.1878878 615:0.20414633 616:0.17405541 617:0.15194599 618:0.17993419 619:0.1664215 620:0.10366298 621:0.10151844 622:0.088607527 623:0.10518762 624:0.13027802 625:0.11478019 626:0.10633029 627:0.10718625 628:0.059127916 629:0.033142988 630:0.066719532 631:0.03599339 632:0.055042602 633:0.10124985 634:0.10363463 635:0.075696386 636:0.039647005 637:0.0049191942 638:0.054629959 639:0.046784855 640:0.017460212 641:0.030520519 642:0.047502797 643:0.065890297 644:0.050833222 645:0.026474243 646:0.014051488 647:0.0221617 648:0.01191787 649:0.010106978 650:0 
0.6755584141189009 3.710443376220411 1:0.034521833 2:0.029958434 3:0.021852883 4:0.020857716 5:0.025819311 6:0.021538019 7:0.017607749 8:0.020487824 9:0.020543789 10:0.01735295 11:0.022045447 12:0.030858375 13:0.038972192 14:0.035508446 15:0.030112792 16:0.026440015 17:0.023170006 18:0.021386182 19:0.019753961 20:0.021035336 21:0.022087172 22:0.01827381 23:0.014186255 24:0.015242132 25:0.012088036 26:0.011749965 27:0.015178785 28:0.013373044 29:0.0083728321 30:0.0071984045 31:0.0012106437 32:0.0038755951 33:0.0074445298 34:0.011799014 35:0.014583044 36:0.018484248 37:0.018252011 38:0.021887869 39:0.022822382 40:0.023059659 41:0.018304752 42:0.021117495 43:0.022844534 44:0.024658537 45:0.026696922 46:0.033627052 47:0.052926619 48:0.066811197 49:0.067009151 50:0.054657467 51:0.037688881 52:0.027363922 53:0.024138683 54:0.015147022 55:0.013769658 56:0.01192026 57:0.011103359 58:0.012520103 59:0.014337153 60:0.02041932 61:0.025162449 62:0.025824467 63:0.026065318 64:0.032790929 65:0.039126955 66:0.036927238 67:0.028273415 68:0.026752887 69:0.032469675 70:0.038610678 71:0.047762848 72:0.064296611 73:0.077257045 74:0.074033156 75:0.051300608 76:0.027471632 77:0.017833715 78:0.014239757 79:0.0057299738 80:0 81:0.0030152698 82:0.012866437 83:0.020227753 84:0.023198076 85:0.025667299 86:0.033635959 87:0.03650232 88:0.033140074 89:0.030210068 90:0.024214691 91:0.019535145 92:0.011366889 93:0.012654124 94:0.01753022 95:0.020563655 96:0.019485334 97:0.020110317 98:0.027676325 99:0.037094314 100:0.037503056 101:0.041183684 102:0.040574875 103:0.043447454 104:0.049673427 105:0.061969087 106:0.079530597 107:0.098700538 108:0.097509876 109:0.086145394 110:0.066409245 111:0.057136241 112:0.055084139 113:0.057298273 114:0.045906302 115:0.034897879 116:0.022252955 117:0.023026491 118:0.02243034 119:0.023291251 120:0.020117758 121:0.019750739 122:0.022404321 123:0.028313966 124:0.023927193 125:0.024873076 126:0.023673801 127:0.023496943 128:0.024684379 129:0.02503751 130:0.024971584 131:0.034053374 132:0.029408637 133:0.0209908 134:0.016099293 135:0.01747361 136:0.024642948 137:0.028381182 138:0.020971812 139:0.019301325 140:0.019720148 141:0.026337052 142:0.034774113 143:0.041617569 144:0.04746158 145:0.048556428 146:0.044744357 147:0.051163305 148:0.06244323 149:0.10353837 150:0.15820539 151:0.1880646 152:0.16813883 153:0.119175 154:0.06088344 155:0.038678713 156:0.03478935 157:0.039924636 158:0.039976556 159:0.043252662 160:0.044845678 161:0.056989796 162:0.070461348 163:0.075011447 164:0.068207309 165:0.054894507 166:0.044408921 167:0.033143826 168:0.030277636 169:0.034969665 170:0.044174459 171:0.036855277 172:0.033464782 173:0.030446526 174:0.038963985 175:0.046629149 176:0.046732638 177:0.040616777 178:0.044400308 179:0.045642246 180:0.052463844 181:0.064448625 182:0.069556959 183:0.061897945 184:0.055263814 185:0.043599464 186:0.037535813 187:0.031644803 188:0.024077095 189:0.020352105 190:0.021651354 191:0.023568729 192:0.025616901 193:0.018429339 194:0.012022168 195:0.0112927 196:0.016505927 197:0.019147204 198:0.017733447 199:0.021797916 200:0.025922565 201:0.03016272 202:0.033573136 203:0.036962695 204:0.050714418 205:0.069139659 206:0.085921362 207:0.11421827 208:0.16012897 209:0.24746345 210:0.33829388 211:0.37586024 212:0.33796701 213:0.2447263 214:0.1507863 215:0.098681845 216:0.069923215 217:0.063877262 218:0.059584014 219:0.053024013 220:0.049790923 221:0.042119019 222:0.03549907 223:0.029395336 224:0.021684874 225:0.026171386 226:0.035755623 227:0.044044774 228:0.044215422 229:0.04014058 230:0.039392009 231:0.045576319 232:0.053845368 233:0.060486652 234:0.060267657 235:0.061409853 236:0.05166956 237:0.043332182 238:0.038614079 239:0.033202369 240:0.032706015 241:0.032977398 242:0.028597245 243:0.029947946 244:0.02932097 245:0.026413938 246:0.02577864 247:0.029609054 248:0.048134733 249:0.07584165 250:0.097023785 251:0.10203724 252:0.09041895 253:0.078578621 254:0.077100694 255:0.07558421 256:0.068877764 257:0.059971135 258:0.049294043 259:0.043547545 260:0.042289373 261:0.031903002 262:0.024835687 263:0.020293504 264:0.017632185 265:0.02011184 266:0.021594159 267:0.0178486 268:0.018506985 269:0.0170542 270:0.015588349 271:0.013342338 272:0.018587971 273:0.020870022 274:0.016913617 275:0.014333813 276:0.013585357 277:0.018756744 278:0.028507527 279:0.034300849 280:0.046031181 281:0.056475688 282:0.051285431 283:0.044389643 284:0.037280664 285:0.033324551 286:0.037916899 287:0.038291067 288:0.034503669 289:0.040875502 290:0.052523088 291:0.077532239 292:0.093127206 293:0.094097883 294:0.084245309 295:0.069015071 296:0.062213104 297:0.060150396 298:0.049759746 299:0.038681351 300:0.029556314 301:0.027989315 302:0.031701356 303:0.038014647 304:0.042973075 305:0.041843534 306:0.044537142 307:0.043454602 308:0.041374609 309:0.046175987 310:0.052177519 311:0.054183204 312:0.057129502 313:0.05651788 314:0.059450053 315:0.072977275 316:0.091434337 317:0.10595766 318:0.11772005 319:0.12410554 320:0.12629424 321:0.12362073 322:0.11335549 323:0.10310894 324:0.099362031 325:0.093027763 326:0.084647253 327:0.080931462 328:0.095356338 329:0.12093363 330:0.15091527 331:0.17333394 332:0.18308502 333:0.17785527 334:0.1661223 335:0.15123881 336:0.14962059 337:0.15493655 338:0.16691799 339:0.17728713 340:0.17699061 341:0.16658965 342:0.15436214 343:0.14487559 344:0.13756883 345:0.13463338 346:0.13544554 347:0.13436112 348:0.13088535 349:0.12386528 350:0.11747018 351:0.11668498 352:0.11351119 353:0.1033744 354:0.10057033 355:0.1005507 356:0.11290532 357:0.11986375 358:0.11848246 359:0.11406022 360:0.11418018 361:0.11197842 362:0.11433958 363:0.11509454 364:0.12534754 365:0.13649251 366:0.14318183 367:0.14916316 368:0.15467449 369:0.16124561 370:0.17410238 371:0.18928674 372:0.20981833 373:0.23367643 374:0.25562841 375:0.27418017 376:0.28864303 377:0.29526621 378:0.30589634 379:0.31882015 380:0.33604196 381:0.37216735 382:0.41166174 383:0.44160962 384:0.45196542 385:0.44667104 386:0.43159708 387:0.42672238 388:0.4071604 389:0.37985039 390:0.34839231 391:0.32134932 392:0.29708186 393:0.27579129 394:0.25321358 395:0.24246247 396:0.24212873 397:0.25157011 398:0.26342806 399:0.25948414 400:0.24885094 401:0.23416764 402:0.22421549 403:0.21958718 404:0.22241743 405:0.22190216 406:0.22744836 407:0.23230481 408:0.22567989 409:0.21447514 410:0.21278837 411:0.20479703 412:0.20201728 413:0.19351159 414:0.18168609 415:0.17860156 416:0.17661545 417:0.17145467 418:0.17556666 419:0.17877227 420:0.18238299 421:0.18938103 422:0.19153802 423:0.19575404 424:0.1968378 425:0.20661823 426:0.21657981 427:0.22936368 428:0.24283436 429:0.25232136 430:0.25997967 431:0.26858142 432:0.26545006 433:0.26409113 434:0.26603073 435:0.25729382 436:0.25200498 437:0.24672934 438:0.23409468 439:0.22505502 440:0.22216141 441:0.21756543 442:0.22447903 443:0.22650792 444:0.21988657 445:0.22168586 446:0.22273986 447:0.22339836 448:0.23362158 449:0.24064554 450:0.2396168 451:0.24348131 452:0.2429968 453:0.24489929 454:0.24746619 455:0.23653547 456:0.22672786 457:0.2188652 458:0.21152715 459:0.21113189 460:0.20721856 461:0.20740274 462:0.21336588 463:0.22605957 464:0.26749781 465:0.30817965 466:0.33945262 467:0.35026625 468:0.33845991 469:0.32314172 470:0.29654816 471:0.26654571 472:0.24641858 473:0.23193388 474:0.22200757 475:0.214204 476:0.19607693 477:0.19214854 478:0.186378 479:0.18722719 480:0.19033793 481:0.20156704 482:0.21476088 483:0.22788078 484:0.22695576 485:0.24254791 486:0.25836018 487:0.28482118 488:0.31558239 489:0.35147145 490:0.39905304 491:0.434872 492:0.44711849 493:0.4586288 494:0.45592856 495:0.43564197 496:0.3984127 497:0.36113214 498:0.34335896 499:0.33235335 500:0.31010848 501:0.29362401 502:0.28949556 503:0.29885957 504:0.29268235 505:0.29348096 506:0.28950828 507:0.31385377 508:0.34463269 509:0.37828422 510:0.40381697 511:0.43936297 512:0.46356156 513:0.5000003 514:0.52199274 515:0.54419506 516:0.56562936 517:0.59423465 518:0.62668908 519:0.6751917 520:0.73385394 521:0.80015284 522:0.88093871 523:0.95253855 524:0.99573034 525:1 526:0.96478033 527:0.91275036 528:0.86163354 529:0.80334967 530:0.75853103 531:0.71700829 532:0.67908084 533:0.63466883 534:0.58645684 535:0.53512681 536:0.48867315 537:0.44328979 538:0.41393325 539:0.38189185 540:0.36362511 541:0.34843427 542:0.3490552 543:0.35048407 544:0.35571182 545:0.35306582 546:0.35682079 547:0.35199487 548:0.35282525 549:0.35220543 550:0.36068133 551:0.3717722 552:0.37926403 553:0.3940258 554:0.4049089 555:0.41766977 556:0.42716536 557:0.43303651 558:0.4214859 559:0.40642297 560:0.38338599 561:0.36384475 562:0.33919483 563:0.32189602 564:0.30599698 565:0.29690763 566:0.27479565 567:0.24610747 568:0.2277842 569:0.22286497 570:0.20856087 571:0.20046616 572:0.19094439 573:0.1800462 574:0.17235033 575:0.1678831 576:0.15893696 577:0.15994661 578:0.15464167 579:0.15458079 580:0.16512755 581:0.17184524 582:0.16356899 583:0.15444893 584:0.14471525 585:0.13742936 586:0.13436903 587:0.13318738 588:0.12844373 589:0.12183005 590:0.10447657 591:0.095249161 592:0.095336065 593:0.10758074 594:0.11493046 595:0.11639819 596:0.11115501 597:0.11052733 598:0.10956182 599:0.10784339 600:0.10321072 601:0.098513365 602:0.094708212 603:0.090071917 604:0.088427737 605:0.092328414 606:0.093724534 607:0.088771783 608:0.085764781 609:0.083088987 610:0.083891764 611:0.079341434 612:0.075396337 613:0.071519397 614:0.0738829 615:0.072126448 616:0.067302391 617:0.063646138 618:0.055559047 619:0.048038039 620:0.049057469 621:0.052401669 622:0.056877926 623:0.059345331 624:0.052156128 625:0.044795807 626:0.038553718 627:0.037863337 628:0.043195292 629:0.04787847 630:0.048525311 631:0.043363478 632:0.036705494 633:0.038438566 634:0.042754959 635:0.046650361 636:0.047781076 637:0.037922055 638:0.03113134 639:0.033041447 640:0.030170806 641:0.034166064 642:0.036009897 643:0.030150237 644:0.027667478 645:0.027899949 646:0.026959926 647:0.036235217 648:0.035719994 649:0.034729458 650:0.037887305 
0.6098193469948118 0.3429764353686767 1:0.34104225 2:0.36540186 3:0.39240688 4:0.37336546 5:0.35256451 6:0.35817876 7:0.37520492 8:0.39450052 9:0.35768712 10:0.3308678 11:0.29300416 12:0.29725307 13:0.30636206 14:0.30444878 15:0.24569589 16:0.21123642 17:0.1562705 18:0.1912749 19:0.25754845 20:0.28228176 21:0.28477797 22:0.22845741 23:0.14125884 24:0.19527115 25:0.24123083 26:0.23009594 27:0.19392562 28:0.11757883 29:0.094366878 30:0.15323392 31:0.17979677 32:0.20610467 33:0.13637063 34:0.1838699 35:0.22312854 36:0.27206847 37:0.22626178 38:0.2056762 39:0.20693649 40:0.24166462 41:0.19017975 42:0.163865 43:0.15283893 44:0.22687823 45:0.26576167 46:0.28667602 47:0.2693873 48:0.21613376 49:0.15915488 50:0.12753487 51:0.089382775 52:0.067366421 53:0.039540235 54:0.093465798 55:0.067524724 56:0.10590816 57:0.17630661 58:0.24014634 59:0.35126388 60:0.38347447 61:0.26703566 62:0.22937065 63:0.21760334 64:0.23024358 65:0.28590661 66:0.23956032 67:0.18823603 68:0.23189048 69:0.20308103 70:0.18131582 71:0.21617714 72:0.17941396 73:0.173079 74:0.16686581 75:0.11721505 76:0.088200867 77:0.004969642 78:0 79:0.05379542 80:0.13568872 81:0.22940719 82:0.22942089 83:0.2214725 84:0.27841714 85:0.30634987 86:0.36981821 87:0.36467656 88:0.35836673 89:0.36127165 90:0.36009127 91:0.29545927 92:0.26536214 93:0.28310901 94:0.30693361 95:0.31891021 96:0.35992306 97:0.42072165 98:0.45106921 99:0.3903003 100:0.367134 101:0.41999105 102:0.43080401 103:0.36406013 104:0.2729665 105:0.24595541 106:0.36166817 107:0.39657134 108:0.38848063 109:0.39274174 110:0.4240284 111:0.45293149 112:0.43344334 113:0.40802968 114:0.42161664 115:0.35039324 116:0.31961113 117:0.26632106 118:0.24096142 119:0.26253483 120:0.23707093 121:0.26801211 122:0.36245281 123:0.36577857 124:0.36154106 125:0.32789361 126:0.31228375 127:0.28969815 128:0.29170883 129:0.36001667 130:0.39140457 131:0.46524903 132:0.43652862 133:0.3371959 134:0.34329265 135:0.29272407 136:0.28263485 137:0.34569603 138:0.35994363 139:0.42879027 140:0.40788659 141:0.30621821 142:0.36310348 143:0.3768191 144:0.39977306 145:0.40444359 146:0.39292744 147:0.35445875 148:0.30629814 149:0.22307603 150:0.26680356 151:0.35207057 152:0.36718652 153:0.38824928 154:0.40570313 155:0.44192672 156:0.49138188 157:0.37259984 158:0.29353917 159:0.35961333 160:0.40464604 161:0.53183085 162:0.47178492 163:0.38360536 164:0.45469636 165:0.46967223 166:0.43832546 167:0.37213865 168:0.28908321 169:0.29028112 170:0.32152137 171:0.3955287 172:0.45770171 173:0.40565443 174:0.38318753 175:0.36736155 176:0.43248972 177:0.4122512 178:0.36070696 179:0.32484487 180:0.37303668 181:0.40053183 182:0.39794272 183:0.41802603 184:0.39289546 185:0.3365041 186:0.3361274 187:0.33404669 188:0.28688228 189:0.34252933 190:0.39143729 191:0.47968155 192:0.47299269 193:0.44837356 194:0.38390598 195:0.43158409 196:0.42918983 197:0.33242643 198:0.32963717 199:0.3689141 200:0.39603022 201:0.42722404 202:0.38455287 203:0.28363487 204:0.30993366 205:0.31574807 206:0.40429825 207:0.43648219 208:0.45423821 209:0.33507791 210:0.29972267 211:0.33296067 212:0.35376695 213:0.37563413 214:0.39991993 215:0.3499952 216:0.42793563 217:0.45849702 218:0.3516992 219:0.31923518 220:0.28778565 221:0.29578274 222:0.38235572 223:0.41641945 224:0.40263763 225:0.39763224 226:0.37400475 227:0.37809005 228:0.4198457 229:0.40448013 230:0.39825475 231:0.3686325 232:0.37648955 233:0.38362819 234:0.40753269 235:0.38323852 236:0.41131434 237:0.39080334 238:0.33919823 239:0.30650133 240:0.28376579 241:0.29261297 242:0.31484014 243:0.31745204 244:0.34843048 245:0.39300734 246:0.39458272 247:0.41355488 248:0.40279746 249:0.43377742 250:0.43356815 251:0.3965424 252:0.38983986 253:0.41822618 254:0.42239442 255:0.43548673 256:0.46098489 257:0.48983848 258:0.51364636 259:0.49161553 260:0.38922417 261:0.25662377 262:0.16684069 263:0.16493502 264:0.22852665 265:0.2355047 266:0.22972454 267:0.23625967 268:0.21238104 269:0.24148501 270:0.2329727 271:0.20381773 272:0.19027716 273:0.1646504 274:0.16051562 275:0.20698749 276:0.21514896 277:0.20979346 278:0.24541506 279:0.29143181 280:0.33652619 281:0.31885999 282:0.27938291 283:0.29465562 284:0.27119708 285:0.23877569 286:0.26405692 287:0.26268628 288:0.22993079 289:0.25815043 290:0.227672 291:0.28728792 292:0.27066129 293:0.23384714 294:0.24381459 295:0.33681539 296:0.33881921 297:0.35431185 298:0.32389432 299:0.31712404 300:0.32611886 301:0.33329856 302:0.29696995 303:0.35513228 304:0.32454729 305:0.29615945 306:0.34738481 307:0.34396315 308:0.38512212 309:0.45599088 310:0.3920393 311:0.41704047 312:0.42878193 313:0.45713627 314:0.46321627 315:0.43131238 316:0.34053689 317:0.31117645 318:0.3607412 319:0.48931566 320:0.45505404 321:0.47228417 322:0.37288752 323:0.35147697 324:0.43189231 325:0.47310457 326:0.48148066 327:0.49209729 328:0.44753566 329:0.46206862 330:0.48171431 331:0.45320925 332:0.34677368 333:0.29983836 334:0.28728336 335:0.29928964 336:0.33674079 337:0.34708193 338:0.33928195 339:0.37337384 340:0.37936556 341:0.46476653 342:0.48083454 343:0.54813856 344:0.51075971 345:0.41774443 346:0.40146106 347:0.43608949 348:0.50154799 349:0.53086048 350:0.45279372 351:0.37928945 352:0.31650683 353:0.30049437 354:0.35403788 355:0.33983901 356:0.35633093 357:0.33558324 358:0.29178113 359:0.26263073 360:0.2121276 361:0.24135488 362:0.32758996 363:0.43401489 364:0.40693679 365:0.33857569 366:0.28517449 367:0.30976316 368:0.33960158 369:0.4402532 370:0.42370877 371:0.41592249 372:0.38418299 373:0.36648104 374:0.4043774 375:0.45614311 376:0.49614453 377:0.48915812 378:0.42359385 379:0.35995048 380:0.37496823 381:0.41364086 382:0.48428589 383:0.4729729 384:0.49670923 385:0.45593989 386:0.5103457 387:0.59730983 388:0.59776419 389:0.53961104 390:0.4994688 391:0.44317713 392:0.49166578 393:0.47534129 394:0.39360553 395:0.42411211 396:0.45403728 397:0.5071348 398:0.5522117 399:0.56302315 400:0.5369131 401:0.52703315 402:0.45820326 403:0.48772886 404:0.54701066 405:0.61286944 406:0.62965131 407:0.56534129 408:0.45931745 409:0.42848131 410:0.44989339 411:0.53056139 412:0.51918143 413:0.49614453 414:0.42646527 415:0.44000205 416:0.55694616 417:0.62756908 418:0.49088418 419:0.49254858 420:0.53191608 421:0.57808733 422:0.58493292 423:0.55639058 424:0.53264362 425:0.61026746 426:0.54285538 427:0.48108491 428:0.52273405 429:0.54278916 430:0.49303716 431:0.47877514 432:0.52366859 433:0.58224416 434:0.64394993 435:0.655132 436:0.69569582 437:0.63035303 438:0.54496115 439:0.46850404 440:0.47946084 441:0.54361415 442:0.55332661 443:0.50918508 444:0.50460434 445:0.48476458 446:0.52685279 447:0.52720213 448:0.53376007 449:0.60043013 450:0.5395326 451:0.53032851 452:0.51909238 453:0.51813728 454:0.5210681 455:0.46021548 456:0.38386106 457:0.40198848 458:0.41756406 459:0.48592138 460:0.54476404 461:0.58504099 462:0.58753574 463:0.5285728 464:0.44477686 465:0.34262675 466:0.27186224 467:0.33867234 468:0.47726294 469:0.51745081 470:0.51697898 471:0.44506529 472:0.40876865 473:0.34958196 474:0.34506285 475:0.41799101 476:0.47216848 477:0.51244694 478:0.52179796 479:0.43854615 480:0.37815017 481:0.36342162 482:0.39047229 483:0.47136331 484:0.51678109 485:0.45027468 486:0.38054594 487:0.39130336 488:0.40135071 489:0.45472679 490:0.50881904 491:0.47077045 492:0.47110909 493:0.47387475 494:0.44082779 495:0.43772346 496:0.4346633 497:0.4659667 498:0.47912675 499:0.47421494 500:0.55086464 501:0.60279852 502:0.65566319 503:0.64469951 504:0.63098466 505:0.65837479 506:0.70343184 507:0.68068415 508:0.6588946 509:0.60646677 510:0.60493404 511:0.59214383 512:0.60656267 513:0.60179013 514:0.6051966 515:0.63254255 516:0.63656771 517:0.67591542 518:0.71113902 519:0.62979972 520:0.56640065 521:0.58929604 522:0.64346892 523:0.62343967 524:0.62605387 525:0.61929345 526:0.72516054 527:0.80701578 528:0.63923216 529:0.49855021 530:0.51500177 531:0.55107164 532:0.68073893 533:0.74300104 534:0.78268355 535:0.87251312 536:0.82318199 537:0.7751264 538:0.75406742 539:0.78299558 540:0.88237703 541:0.92530012 542:0.81349766 543:0.70174235 544:0.57616109 545:0.60095525 546:0.72885239 547:0.81636906 548:0.86686152 549:0.88051856 550:0.77682579 551:0.78546751 552:0.82869959 553:0.89199591 554:1 555:0.94863462 556:0.85097241 557:0.8156293 558:0.78697586 559:0.80176687 560:0.85138184 561:0.82045972 562:0.79655671 563:0.78380841 564:0.72389644 565:0.69587773 566:0.63741475 567:0.6400792 568:0.61607122 569:0.52479953 570:0.47673401 571:0.51463568 572:0.5969438 573:0.66471583 574:0.60684121 575:0.50247037 576:0.45632574 577:0.5267508 578:0.58804107 579:0.60648882 580:0.58493215 581:0.49570161 582:0.43181926 583:0.40903425 584:0.37877119 585:0.42386478 586:0.49582794 587:0.55697358 588:0.59705031 589:0.6205439 590:0.58432102 591:0.51191801 592:0.44467792 593:0.4058409 594:0.40110338 595:0.3681888 596:0.41003275 597:0.48486504 598:0.56768912 599:0.52655905 600:0.45813856 601:0.41728249 602:0.40224037 603:0.43744189 604:0.46609381 605:0.45323667 606:0.4678891 607:0.36507231 608:0.32355261 609:0.34658724 610:0.31240553 611:0.30640316 612:0.35767266 613:0.37570569 614:0.40435532 615:0.36162096 616:0.30248147 617:0.3069686 618:0.32055178 619:0.29899207 620:0.31708902 621:0.29301557 622:0.25679883 623:0.27207229 624:0.28904897 625:0.29163122 626:0.20301786 627:0.22062166 628:0.28249484 629:0.30925024 630:0.31846955 631:0.31656846 632:0.31705248 633:0.33900568 634:0.3180038 635:0.30087414 636:0.34177741 637:0.30598837 638:0.224382 639:0.23617138 640:0.24861908 641:0.24916019 642:0.27116284 643:0.23477562 644:0.2268554 645:0.27932507 646:0.2580089 647:0.34247833 648:0.26897559 649:0.18591559 650:0.13137662 
2.808873368824497 1.819832901040578 1:0.67475682 2:0.66516888 3:0.64557397 4:0.64003593 5:0.68017179 6:0.72821307 7:0.71236748 8:0.66821367 9:0.62479681 10:0.62813532 11:0.63563871 12:0.62696731 13:0.57600087 14:0.58834463 15:0.61434102 16:0.60565847 17:0.56922483 18:0.53442407 19:0.51219076 20:0.57260269 21:0.59006596 22:0.56747329 23:0.55167955 24:0.56632131 25:0.594001 26:0.57307267 27:0.55231708 28:0.52840918 29:0.55597913 30:0.57330763 31:0.54831421 32:0.53137016 33:0.55633986 34:0.56508768 35:0.58553481 36:0.57359362 37:0.56567335 38:0.55967492 39:0.53092182 40:0.53174812 41:0.52565378 42:0.53571343 43:0.53358907 44:0.56174177 45:0.55912286 46:0.56840289 47:0.52776855 48:0.52154768 49:0.50961894 50:0.56432396 51:0.56694072 52:0.55410063 53:0.56060576 54:0.53690994 55:0.48705783 56:0.466158 57:0.42995292 58:0.46012974 59:0.51377904 60:0.49847597 61:0.49334314 62:0.48348823 63:0.47985941 64:0.52160466 65:0.54456836 66:0.55393821 67:0.53914654 68:0.52362573 69:0.51631588 70:0.50846696 71:0.4702425 72:0.47053537 73:0.47696665 74:0.49059421 75:0.50162446 76:0.48076695 77:0.46845251 78:0.51071912 79:0.514319 80:0.53347594 81:0.55298746 82:0.53552681 83:0.577501 84:0.59376907 85:0.54146481 86:0.5335204 87:0.52236187 88:0.5209896 89:0.51868165 90:0.50097954 91:0.51419717 92:0.54647237 93:0.56805474 94:0.5655874 95:0.55632859 96:0.5483436 97:0.53276795 98:0.5348348 99:0.59110177 100:0.60370648 101:0.56728542 102:0.53375196 103:0.5364719 104:0.56596667 105:0.61226207 106:0.6412791 107:0.65777481 108:0.62834048 109:0.59339112 110:0.57033539 111:0.58757186 112:0.60263568 113:0.56891042 114:0.55720156 115:0.58161443 116:0.5811488 117:0.59401655 118:0.58991909 119:0.60548264 120:0.58858609 121:0.55855185 122:0.53881264 123:0.58726132 124:0.63212395 125:0.64428198 126:0.59321618 127:0.56932682 128:0.57711744 129:0.59139806 130:0.58334917 131:0.5821535 132:0.57800162 133:0.57659 134:0.56346226 135:0.55298573 136:0.55537099 137:0.55045325 138:0.56800157 139:0.56056905 140:0.53560716 141:0.53646713 142:0.52363008 143:0.51829684 144:0.54788613 145:0.54916865 146:0.57432443 147:0.57057559 148:0.53347421 149:0.52942854 150:0.55932546 151:0.57129866 152:0.57658052 153:0.57465142 154:0.57720512 155:0.58723062 156:0.57261133 157:0.54885203 158:0.52458036 159:0.50225294 160:0.49829152 161:0.54166782 162:0.54664516 163:0.58718747 164:0.63089162 165:0.64410794 166:0.67754203 167:0.64247084 168:0.55670655 169:0.54665339 170:0.53353512 171:0.55322158 172:0.57861501 173:0.54035169 174:0.56012672 175:0.56187743 176:0.51464164 177:0.50588089 178:0.5279513 179:0.56145585 180:0.56419957 181:0.54748058 182:0.58794856 183:0.64025235 184:0.63399643 185:0.59316003 186:0.53277314 187:0.54740626 188:0.55670786 189:0.56292617 190:0.57335341 191:0.59222656 192:0.56732041 193:0.56078631 194:0.54135984 195:0.53697383 196:0.53035033 197:0.55045456 198:0.53348804 199:0.52423048 200:0.50421876 201:0.5089978 202:0.52788001 203:0.55733633 204:0.53372085 205:0.54560244 206:0.55580813 207:0.60229701 208:0.57602286 209:0.5716697 210:0.55043381 211:0.55369025 212:0.53342366 213:0.56055999 214:0.5478797 215:0.56643319 216:0.5277971 217:0.53821439 218:0.57492876 219:0.62794828 220:0.61545247 221:0.61310613 222:0.62863857 223:0.64893407 224:0.57082826 225:0.50562173 226:0.47856617 227:0.50405115 228:0.54505086 229:0.56104505 230:0.56528205 231:0.59710324 232:0.57129133 233:0.56023556 234:0.57214183 235:0.56189382 236:0.55937731 237:0.54157364 238:0.54090887 239:0.55513686 240:0.55212963 241:0.54632205 242:0.58251333 243:0.59992087 244:0.57664704 245:0.57274652 246:0.5494628 247:0.53375626 248:0.53606761 249:0.5269388 250:0.50698537 251:0.55555713 252:0.5518173 253:0.58330464 254:0.5919717 255:0.56971467 256:0.56468552 257:0.54318959 258:0.49849066 259:0.4551312 260:0.43231913 261:0.43698981 262:0.44796517 263:0.46181345 264:0.50466496 265:0.52362013 266:0.52422225 267:0.51193893 268:0.48651099 269:0.45639554 270:0.43930894 271:0.4442336 272:0.49048665 273:0.54574156 274:0.52970499 275:0.50636464 276:0.44064236 277:0.42733487 278:0.46049255 279:0.48943356 280:0.49832737 281:0.5009765 282:0.47475725 283:0.49907467 284:0.48517194 285:0.4721444 286:0.4668625 287:0.476482 288:0.48907462 289:0.50582302 290:0.46134782 291:0.43332991 292:0.45252484 293:0.49695119 294:0.5209524 295:0.50983322 296:0.45088559 297:0.44557694 298:0.4558301 299:0.48428258 300:0.52480543 301:0.55277497 302:0.54736954 303:0.57516932 304:0.55938679 305:0.51173162 306:0.53505123 307:0.53112268 308:0.52983201 309:0.53677386 310:0.55165273 311:0.58532012 312:0.62019569 313:0.58605099 314:0.57554209 315:0.5511893 316:0.5439567 317:0.5193646 318:0.5718351 319:0.62044275 320:0.58706307 321:0.55783522 322:0.55260044 323:0.53703862 324:0.55501157 325:0.57094318 326:0.56899375 327:0.59042794 328:0.58567953 329:0.60521829 330:0.64191622 331:0.66902661 332:0.65273869 333:0.63280255 334:0.59704238 335:0.55046445 336:0.52992529 337:0.56539863 338:0.58191985 339:0.58378541 340:0.57299882 341:0.55917513 342:0.56660426 343:0.53080821 344:0.51179945 345:0.53656697 346:0.58547044 347:0.62298304 348:0.63600153 349:0.61954039 350:0.61822253 351:0.57365924 352:0.53613025 353:0.50394356 354:0.51075757 355:0.56603318 356:0.62076414 357:0.61850375 358:0.60104352 359:0.585118 360:0.5948891 361:0.62770379 362:0.6451416 363:0.62527323 364:0.63445044 365:0.62559462 366:0.61954212 367:0.60968375 368:0.62218565 369:0.62830251 370:0.65366954 371:0.63120085 372:0.63205183 373:0.64080787 374:0.71121806 375:0.73612511 376:0.7264322 377:0.66677833 378:0.63463748 379:0.61113989 380:0.64324617 381:0.62095809 382:0.63160259 383:0.66917652 384:0.70990235 385:0.69121277 386:0.64942044 387:0.59594953 388:0.62752414 389:0.69174105 390:0.74555844 391:0.76066065 392:0.7433728 393:0.72018838 394:0.70642602 395:0.75580299 396:0.79747003 397:0.80121934 398:0.76528597 399:0.77826297 400:0.81480455 401:0.83014178 402:0.80539459 403:0.79431462 404:0.76764917 405:0.76636153 406:0.70741045 407:0.65466261 408:0.69795465 409:0.75441641 410:0.76141524 411:0.75612909 412:0.72406942 413:0.72465944 414:0.7486611 415:0.75189769 416:0.7406947 417:0.73305005 418:0.719594 419:0.70677376 420:0.68826908 421:0.70072949 422:0.6936844 423:0.69421399 424:0.67546523 425:0.67351973 426:0.67985344 427:0.73470229 428:0.74461287 429:0.77138507 430:0.78375483 431:0.82136285 432:0.79709077 433:0.77891654 434:0.75386953 435:0.76399398 436:0.77161014 437:0.77773213 438:0.73276842 439:0.71829253 440:0.71647143 441:0.72060215 442:0.75144804 443:0.76122046 444:0.74156207 445:0.7274667 446:0.72218353 447:0.69290215 448:0.6551196 449:0.60809034 450:0.60450387 451:0.65268773 452:0.70527577 453:0.71267635 454:0.67078811 455:0.60480535 456:0.56199145 457:0.56441385 458:0.60205555 459:0.6134482 460:0.61684805 461:0.64875394 462:0.65882272 463:0.65234953 464:0.630283 465:0.60523945 466:0.60729426 467:0.62244052 468:0.61464125 469:0.62196064 470:0.59908634 471:0.58110386 472:0.59006679 473:0.62714833 474:0.62431175 475:0.60933173 476:0.58247358 477:0.59671062 478:0.63294077 479:0.63895524 480:0.62188762 481:0.61753184 482:0.59278119 483:0.56941968 484:0.57011336 485:0.596524 486:0.62361842 487:0.63877463 488:0.61009198 489:0.59122139 490:0.601399 491:0.62813187 492:0.63313425 493:0.62710989 494:0.63525039 495:0.67623931 496:0.72450393 497:0.70624852 498:0.63840878 499:0.59782934 500:0.62917328 501:0.64536923 502:0.64292008 503:0.62270963 504:0.63885587 505:0.66081786 506:0.69549084 507:0.72565508 508:0.7601462 509:0.74142039 510:0.69471288 511:0.69166505 512:0.73612595 513:0.77893293 514:0.79538196 515:0.79188234 516:0.81988817 517:0.81410825 518:0.84214866 519:0.88614392 520:0.92667842 521:0.96062744 522:0.95909405 523:0.94694722 524:0.97480875 525:0.9594655 526:0.93141866 527:0.95577794 528:0.96388173 529:1 530:0.95502245 531:0.89583039 532:0.88303691 533:0.90292776 534:0.89380282 535:0.91779667 536:0.86121744 537:0.86000586 538:0.85457927 539:0.7914474 540:0.75378275 541:0.73785979 542:0.7511254 543:0.78783929 544:0.79319894 545:0.7673766 546:0.77903229 547:0.78580481 548:0.78834039 549:0.78594869 550:0.81146562 551:0.81028295 552:0.82625598 553:0.80930156 554:0.84135044 555:0.86993462 556:0.90122199 557:0.87658703 558:0.84902918 559:0.80996156 560:0.85623711 561:0.85967928 562:0.82200086 563:0.74670869 564:0.6826818 565:0.62085313 566:0.58809453 567:0.54256886 568:0.54178357 569:0.57047278 570:0.58208573 571:0.58253884 572:0.53104752 573:0.51006776 574:0.44670174 575:0.41715062 576:0.43018055 577:0.41559407 578:0.40666053 579:0.43996808 580:0.43410265 581:0.43516698 582:0.37069604 583:0.28656754 584:0.24077384 585:0.2368755 586:0.24493459 587:0.26486513 588:0.29862842 589:0.32346827 590:0.32740116 591:0.28507927 592:0.24812259 593:0.2284998 594:0.23963307 595:0.24119067 596:0.23544748 597:0.20614171 598:0.21710759 599:0.20782955 600:0.19071034 601:0.1716547 602:0.15190773 603:0.16603008 604:0.19473545 605:0.22216161 606:0.23639043 607:0.23400867 608:0.19177963 609:0.18813355 610:0.18034767 611:0.19465943 612:0.18942119 613:0.18843937 614:0.19557321 615:0.22478268 616:0.2463503 617:0.22231171 618:0.23321733 619:0.2272923 620:0.20956166 621:0.20467372 622:0.18887024 623:0.16639011 624:0.13056493 625:0.077373467 626:0.083025947 627:0.11363556 628:0.098318875 629:0.072997607 630:0.059663568 631:0.082527481 632:0.10789691 633:0.11206068 634:0.10163063 635:0.11314271 636:0.083670847 637:0.06205678 638:0.062001273 639:0.08821106 640:0.10178418 641:0.10454067 642:0.07862936 643:0.06882304 644:0.011950294 645:0.003218882 646:0 647:0.042685606 648:0.0575427 649:0.059504826 650:0.0202152 
1.109798935915286 1.766539990239075 1:0.11598103 2:0.14261037 3:0.16023442 4:0.17518067 5:0.17331864 6:0.14615119 7:0.14345019 8:0.16437048 9:0.1563043 10:0.13292457 11:0.086984903 12:0.10030586 13:0.15788658 14:0.19289032 15:0.17234133 16:0.15710126 17:0.18033032 18:0.25822681 19:0.33361372 20:0.39702857 21:0.43461227 22:0.45155984 23:0.48176438 24:0.52874833 25:0.60219127 26:0.66201693 27:0.63876486 28:0.51804841 29:0.36162415 30:0.2131903 31:0.14277913 32:0.13251138 33:0.12402684 34:0.10432322 35:0.090623721 36:0.08206556 37:0.085570708 38:0.11350423 39:0.13478613 40:0.13513215 41:0.12236732 42:0.12004288 43:0.11490988 44:0.11787065 45:0.11871443 46:0.10179053 47:0.10863601 48:0.13511056 49:0.15272474 50:0.13683543 51:0.092059739 52:0.052944012 53:0.047244005 54:0.061372563 55:0.06544321 56:0.0625953 57:0.092396513 58:0.12250825 59:0.15369603 60:0.17509633 61:0.15445511 62:0.1102787 63:0.065209888 64:0.058772106 65:0.078536928 66:0.09151502 67:0.093651712 68:0.11040343 69:0.10264364 70:0.11368176 71:0.10715249 72:0.11155856 73:0.12171269 74:0.1045573 75:0.066673525 76:0.073825032 77:0.08296252 78:0.10369487 79:0.12453017 80:0.10886063 81:0.094644852 82:0.11096112 83:0.092217699 84:0.080893084 85:0.083431631 86:0.10695981 87:0.14177313 88:0.21910585 89:0.26135316 90:0.24891894 91:0.18654992 92:0.14576381 93:0.15014938 94:0.1783084 95:0.16865352 96:0.1451257 97:0.13261747 98:0.12915349 99:0.10981303 100:0.090668678 101:0.11983579 102:0.14993659 103:0.15686546 104:0.18232588 105:0.192592 106:0.18712606 107:0.16611011 108:0.17774098 109:0.21570553 110:0.23547067 111:0.19768217 112:0.13223884 113:0.10049864 114:0.108961 115:0.1118101 116:0.12421121 117:0.1467993 118:0.1531556 119:0.1437114 120:0.11818462 121:0.10657631 122:0.11432654 123:0.12213515 124:0.13228959 125:0.13034709 126:0.10701053 127:0.074810311 128:0.068989739 129:0.080404967 130:0.10693595 131:0.12977204 132:0.1495223 133:0.17617548 134:0.18486439 135:0.18332264 136:0.21956961 137:0.31271124 138:0.38830632 139:0.3979713 140:0.33419034 141:0.25014904 142:0.19440013 143:0.16185084 144:0.12309945 145:0.14141798 146:0.15838489 147:0.16862179 148:0.13767643 149:0.10377036 150:0.09669897 151:0.10932261 152:0.12658583 153:0.13182989 154:0.11553742 155:0.10578714 156:0.089963913 157:0.10312446 158:0.10773864 159:0.081513837 160:0.079583988 161:0.076034926 162:0.13273008 163:0.15138729 164:0.11874393 165:0.10015638 166:0.10261873 167:0.13832299 168:0.17768058 169:0.15161707 170:0.11937954 171:0.10108007 172:0.083981633 173:0.090443365 174:0.10212576 175:0.097837001 176:0.085728228 177:0.08570224 178:0.10668154 179:0.13786928 180:0.13050376 181:0.097908042 182:0.084107384 183:0.11080021 184:0.12674828 185:0.097415246 186:0.072100677 187:0.083600767 188:0.091968253 189:0.10340218 190:0.080448419 191:0.072659798 192:0.091155708 193:0.074680679 194:0.044872854 195:0.064882495 196:0.084227555 197:0.075633034 198:0.052601613 199:0.016197061 200:0.027227078 201:0.049520161 202:0.059939012 203:0.069482699 204:0.078928992 205:0.047982939 206:0.055273794 207:0.062412702 208:0.085286483 209:0.10132723 210:0.082682192 211:0.063843608 212:0.071298786 213:0.079249255 214:0.16077249 215:0.32330951 216:0.58207434 217:0.87338996 218:1 219:0.9252193 220:0.69162345 221:0.46298736 222:0.32828435 223:0.26492351 224:0.21146926 225:0.19856508 226:0.19168416 227:0.20170882 228:0.19612381 229:0.15796338 230:0.11222522 231:0.12301689 232:0.15423638 233:0.17810316 234:0.15109609 235:0.094437987 236:0.078856677 237:0.0780074 238:0.10374583 239:0.11704716 240:0.10316757 241:0.091004066 242:0.096939616 243:0.097787753 244:0.12428711 245:0.086570762 246:0.065885872 247:0.064563736 248:0.059514347 249:0.067167871 250:0.060082566 251:0.059745289 252:0.092412598 253:0.11206847 254:0.12115656 255:0.11859117 256:0.10309277 257:0.10484362 258:0.10265669 259:0.099761456 260:0.082261086 261:0.066090696 262:0.052875377 263:0.041663099 264:0.043819301 265:0.054108411 266:0.065169364 267:0.055215135 268:0.045841042 269:0.048164643 270:0.034904823 271:0.029310253 272:0.044673093 273:0.057816613 274:0.05852747 275:0.054833088 276:0.065838397 277:0.12166664 278:0.18976705 279:0.19779906 280:0.15638298 281:0.092257962 282:0.026914001 283:0.0020445022 284:0 285:0.016759831 286:0.036672164 287:0.05940016 288:0.07876768 289:0.080973119 290:0.066123486 291:0.066199601 292:0.070678882 293:0.082679227 294:0.083379403 295:0.061209381 296:0.052985564 297:0.073722087 298:0.080171905 299:0.12704933 300:0.13382384 301:0.13461992 302:0.13863529 303:0.15665348 304:0.18237682 305:0.23394202 306:0.2810021 307:0.35882318 308:0.40437821 309:0.39832875 310:0.34193084 311:0.25582227 312:0.19883457 313:0.13782932 314:0.10951912 315:0.12199878 316:0.12476004 317:0.11308252 318:0.11562467 319:0.093665898 320:0.11466832 321:0.12223406 322:0.10721499 323:0.10607899 324:0.12948495 325:0.16009896 326:0.1457897 327:0.088361666 328:0.062687702 329:0.081104077 330:0.10437892 331:0.12802739 332:0.11332297 333:0.11729015 334:0.10666764 335:0.09559124 336:0.11645646 337:0.18081099 338:0.18745694 339:0.18894224 340:0.14495513 341:0.13397637 342:0.16567634 343:0.22241713 344:0.27030858 345:0.29473779 346:0.24420932 347:0.21281776 348:0.19331188 349:0.18934213 350:0.17843944 351:0.1491279 352:0.11388235 353:0.12276015 354:0.12636504 355:0.13198654 356:0.15431075 357:0.13968933 358:0.13249093 359:0.11156028 360:0.11078952 361:0.12519287 362:0.15153259 363:0.14141977 364:0.13346165 365:0.12807521 366:0.1679129 367:0.22183381 368:0.26293549 369:0.26340222 370:0.27630454 371:0.30257514 372:0.3346844 373:0.39085889 374:0.43171513 375:0.46496639 376:0.48478615 377:0.44751856 378:0.44945833 379:0.51747292 380:0.55754942 381:0.61507267 382:0.63726705 383:0.63689649 384:0.676678 385:0.68925238 386:0.63602215 387:0.61927158 388:0.59799892 389:0.58869827 390:0.55394673 391:0.47613242 392:0.38873696 393:0.35915467 394:0.33710983 395:0.35048983 396:0.36226481 397:0.3414939 398:0.3150655 399:0.30740696 400:0.31096143 401:0.31357571 402:0.32082349 403:0.31953529 404:0.33555466 405:0.357411 406:0.3544946 407:0.33377308 408:0.32146105 409:0.2762934 410:0.26301035 411:0.26431596 412:0.2802375 413:0.27558798 414:0.26526597 415:0.24274372 416:0.23625945 417:0.25229341 418:0.28012949 419:0.27339232 420:0.27858064 421:0.26640436 422:0.26299596 423:0.25175127 424:0.23586893 425:0.22825345 426:0.24521944 427:0.26741657 428:0.29590124 429:0.28397 430:0.27168444 431:0.29424483 432:0.28835365 433:0.30649129 434:0.32743606 435:0.35980573 436:0.40279633 437:0.42056173 438:0.37243322 439:0.35515442 440:0.33939341 441:0.35692313 442:0.35683686 443:0.34213367 444:0.29035845 445:0.28481272 446:0.32483026 447:0.35802385 448:0.35788581 449:0.327833 450:0.32334346 451:0.36948356 452:0.41201362 453:0.43872139 454:0.47694173 455:0.51260644 456:0.5117541 457:0.46794418 458:0.41522428 459:0.38572237 460:0.38134202 461:0.3737289 462:0.34648645 463:0.3455362 464:0.32915241 465:0.34926108 466:0.34450206 467:0.33321092 468:0.33364588 469:0.36437577 470:0.3978233 471:0.45733461 472:0.46901006 473:0.51172549 474:0.51459908 475:0.5173561 476:0.45930007 477:0.37680474 478:0.28234926 479:0.24021553 480:0.18674937 481:0.16040638 482:0.078884795 483:0.041184861 484:0.050706144 485:0.082948923 486:0.092918344 487:0.088152647 488:0.067102946 489:0.080145195 490:0.10152289 491:0.10098742 492:0.10327224 493:0.087251551 494:0.071271405 495:0.070472576 496:0.099387191 497:0.092881665 498:0.09076228 499:0.087559015 500:0.086652383 501:0.073959865 502:0.062831141 503:0.043656103 504:0.087866522 505:0.12253839 506:0.11931267 507:0.10256689 508:0.10238465 509:0.13654949 510:0.14774002 511:0.13745432 512:0.12812406 513:0.12113692 514:0.10634255 515:0.097453527 516:0.087848298 517:0.11774019 518:0.1530384 519:0.17758042 520:0.17697808 521:0.17388232 522:0.16743454 523:0.16733283 524:0.19587094 525:0.2189611 526:0.23162404 527:0.22749603 528:0.22530071 529:0.25393054 530:0.28291324 531:0.29418468 532:0.3098788 533:0.33938763 534:0.38329577 535:0.42304435 536:0.40707451 537:0.41228995 538:0.42637762 539:0.42963949 540:0.44247442 541:0.4831689 542:0.5010882 543:0.51268226 544:0.44281814 545:0.3621963 546:0.33383363 547:0.35058042 548:0.37223685 549:0.36722916 550:0.35519296 551:0.35504365 552:0.34657729 553:0.32110584 554:0.28558105 555:0.25436565 556:0.25075814 557:0.24941748 558:0.25302759 559:0.2819154 560:0.28017479 561:0.28033689 562:0.26055869 563:0.27639204 564:0.28559259 565:0.30551335 566:0.25135413 567:0.20035565 568:0.13790891 569:0.14437112 570:0.16827534 571:0.22508723 572:0.22030765 573:0.21263582 574:0.19724266 575:0.19062868 576:0.17789145 577:0.1526185 578:0.10975617 579:0.1090474 580:0.11796092 581:0.12056348 582:0.13146579 583:0.13173006 584:0.12238508 585:0.13492423 586:0.11832745 587:0.083070375 588:0.046838783 589:0.025573434 590:0.049353894 591:0.075638868 592:0.06126884 593:0.0323142 594:0.031216986 595:0.054869674 596:0.062955275 597:0.054667473 598:0.052444171 599:0.048448328 600:0.050672561 601:0.046917967 602:0.042418122 603:0.04699954 604:0.060869318 605:0.074640289 606:0.068559244 607:0.05439214 608:0.034780782 609:0.034456503 610:0.040277574 611:0.04614567 612:0.050469417 613:0.04138786 614:0.027624188 615:0.03077391 616:0.023929145 617:0.028389877 618:0.029970951 619:0.046180218 620:0.069074452 621:0.09348236 622:0.085985035 623:0.063125119 624:0.042593163 625:0.030959854 626:0.011285187 627:0.026885005 628:0.036886729 629:0.042185545 630:0.047175866 631:0.043754533 632:0.047441483 633:0.056139138 634:0.05265462 635:0.033860512 636:0.014430921 637:0.024695925 638:0.04365243 639:0.06453158 640:0.071439445 641:0.051079083 642:0.046669703 643:0.047356755 644:0.036750369 645:0.037801605 646:0.028152203 647:0.025003145 648:0.051117804 649:0.081265375 650:0.087882474 
0.3293405973711296 0.7375563405331528 1:0.26100641 2:0.25954562 3:0.27865198 4:0.35888588 5:0.42573705 6:0.46644929 7:0.40817368 8:0.37315246 9:0.38461021 10:0.349904 11:0.28181347 12:0.21859428 13:0.20032497 14:0.24493563 15:0.27167976 16:0.21327543 17:0.17773774 18:0.18518202 19:0.20893048 20:0.23623993 21:0.27453887 22:0.25921324 23:0.18814896 24:0.17933403 25:0.18141261 26:0.1815704 27:0.18702437 28:0.097517163 29:0.071241438 30:0.13910942 31:0.14693481 32:0.16490178 33:0.24419832 34:0.25622359 35:0.32030347 36:0.27207187 37:0.13989586 38:0.058711827 39:0.13527517 40:0.20328243 41:0.26069933 42:0.24356873 43:0.22240405 44:0.20274758 45:0.1583554 46:0.12889194 47:0.18408993 48:0.19551171 49:0.21551722 50:0.20140877 51:0.19685419 52:0.21848162 53:0.21968174 54:0.1870333 55:0.23110729 56:0.21363543 57:0.16312566 58:0.068436772 59:0.023417948 60:0.053565089 61:0.14832543 62:0.19927152 63:0.17171079 64:0.12977301 65:0.11043668 66:0.089705966 67:0.11776264 68:0.17143901 69:0.21802405 70:0.28772029 71:0.25607386 72:0.16248451 73:0.1403538 74:0.10719836 75:0.088323615 76:0.1323804 77:0.18221304 78:0.18127532 79:0.19227035 80:0.1276498 81:0.063073069 82:0.10672461 83:0.16182365 84:0.18791682 85:0.26067543 86:0.26570281 87:0.24630566 88:0.327472 89:0.36344782 90:0.33512908 91:0.33029762 92:0.34475487 93:0.31883737 94:0.35048047 95:0.36051637 96:0.37901685 97:0.41110492 98:0.40143079 99:0.37236044 100:0.39146963 101:0.40832609 102:0.3707487 103:0.2968542 104:0.31020287 105:0.36419338 106:0.36824599 107:0.42007217 108:0.4306916 109:0.37675929 110:0.34111941 111:0.30572569 112:0.25593755 113:0.29319072 114:0.30596957 115:0.29071191 116:0.341961 117:0.39963654 118:0.33974555 119:0.32469839 120:0.30348963 121:0.36205783 122:0.345458 123:0.32752162 124:0.27468258 125:0.29536328 126:0.34195226 127:0.40153301 128:0.34498721 129:0.33896774 130:0.24065201 131:0.22625138 132:0.28569391 133:0.34059924 134:0.35460034 135:0.21582583 136:0.11019499 137:0.10816104 138:0.21018949 139:0.31076348 140:0.30646047 141:0.25771514 142:0.24336731 143:0.22229454 144:0.18672085 145:0.12895732 146:0.1461947 147:0.21074668 148:0.23502889 149:0.23195231 150:0.1321654 151:0.092179075 152:0.080167018 153:0.13837016 154:0.21466382 155:0.21217595 156:0.17505421 157:0.16620882 158:0.17517656 159:0.20764104 160:0.16428 161:0.17993544 162:0.28475672 163:0.33892328 164:0.31129462 165:0.28565565 166:0.21688321 167:0.22475389 168:0.2515265 169:0.30139956 170:0.36166239 171:0.36828494 172:0.25411162 173:0.19112299 174:0.20229732 175:0.19695938 176:0.17820415 177:0.21060543 178:0.21401443 179:0.22441532 180:0.19294365 181:0.13888906 182:0.18935142 183:0.3047764 184:0.33967695 185:0.25907174 186:0.1220789 187:0.031037359 188:0.1471875 189:0.32380328 190:0.3516134 191:0.34351161 192:0.29916093 193:0.23374557 194:0.24619676 195:0.17318788 196:0.13117751 197:0.20974271 198:0.229178 199:0.21753852 200:0.15253839 201:0.10509438 202:0.16989416 203:0.23484188 204:0.25783753 205:0.16563213 206:0.11534861 207:0.13400292 208:0.19392233 209:0.23565097 210:0.23547606 211:0.14869311 212:0.10798096 213:0.094636798 214:0.14770767 215:0.19509058 216:0.23933107 217:0.23297513 218:0.26402161 219:0.2790927 220:0.28623784 221:0.22865923 222:0.15818238 223:0.15065108 224:0.14435671 225:0.15800434 226:0.18236421 227:0.19832636 228:0.30721056 229:0.31317815 230:0.22263762 231:0.15360427 232:0.10488818 233:0.17198534 234:0.23977619 235:0.25203776 236:0.2836566 237:0.3155978 238:0.38308957 239:0.35478932 240:0.23845111 241:0.17417268 242:0.22766344 243:0.3111327 244:0.34905237 245:0.27077255 246:0.20745035 247:0.21475062 248:0.18141498 249:0.16381446 250:0.15858497 251:0.13347159 252:0.17384519 253:0.16411561 254:0.17182405 255:0.20766602 256:0.1887307 257:0.16058357 258:0.15094092 259:0.14598285 260:0.20943829 261:0.23248035 262:0.20877849 263:0.18952659 264:0.22218291 265:0.25238425 266:0.19158597 267:0.14536165 268:0.1114981 269:0.11039425 270:0.12572432 271:0.1257157 272:0.11959787 273:0.12436169 274:0.11175728 275:0.11565287 276:0.15561441 277:0.17487144 278:0.13149421 279:0.078765169 280:0.047243614 281:0.043308139 282:0.11888974 283:0.14520836 284:0.19584775 285:0.20753488 286:0.15963829 287:0.16971296 288:0.14505424 289:0.12536991 290:0.20767617 291:0.12156925 292:0.14822289 293:0.17999026 294:0.22699858 295:0.32052863 296:0.32017094 297:0.22981218 298:0.27454162 299:0.23114952 300:0.27252042 301:0.27452239 302:0.26232356 303:0.26743791 304:0.18645613 305:0.099688604 306:0.068977602 307:0.12557432 308:0.24308538 309:0.28981599 310:0.34475124 311:0.34356648 312:0.24717689 313:0.22022407 314:0.18684433 315:0.16150023 316:0.22205581 317:0.2401979 318:0.25143442 319:0.2881344 320:0.27302948 321:0.20418879 322:0.22126557 323:0.23547913 324:0.18513006 325:0.16695386 326:0.14859718 327:0.16915169 328:0.22370823 329:0.23149496 330:0.24282429 331:0.24580713 332:0.28972432 333:0.30017659 334:0.27115464 335:0.23601519 336:0.21730252 337:0.21370369 338:0.28572348 339:0.28881973 340:0.29301876 341:0.27133778 342:0.30197209 343:0.20569649 344:0.1330931 345:0.12702851 346:0.24582513 347:0.35755041 348:0.35352609 349:0.22999085 350:0.21454023 351:0.20513248 352:0.20301056 353:0.17585497 354:0.10681382 355:0.053363677 356:0.044826377 357:0.07346645 358:0.15942748 359:0.19200104 360:0.15784357 361:0.13407977 362:0.11991979 363:0.15622419 364:0.17801723 365:0.21502963 366:0.23296547 367:0.20906542 368:0.086140655 369:0.04059219 370:0.13121416 371:0.30728564 372:0.36170244 373:0.27300361 374:0.20086519 375:0.21525033 376:0.28334174 377:0.25420105 378:0.26859513 379:0.29188257 380:0.30238983 381:0.2528711 382:0.28649864 383:0.35227072 384:0.42231518 385:0.32046279 386:0.22518286 387:0.20313366 388:0.28826126 389:0.3395026 390:0.31501094 391:0.24870583 392:0.2716653 393:0.27595782 394:0.30738628 395:0.32286608 396:0.30828357 397:0.28844145 398:0.27236262 399:0.2258468 400:0.27156484 401:0.34777617 402:0.35648078 403:0.33809486 404:0.28133821 405:0.28213534 406:0.26778698 407:0.24485376 408:0.23530972 409:0.23405965 410:0.27358693 411:0.32869953 412:0.28340697 413:0.26695675 414:0.26446539 415:0.20750441 416:0.2509774 417:0.27245831 418:0.30728641 419:0.39583704 420:0.36456248 421:0.32164919 422:0.2638565 423:0.23078555 424:0.34927198 425:0.40787575 426:0.41160542 427:0.40755007 428:0.33426765 429:0.33265835 430:0.3551003 431:0.30715764 432:0.3244909 433:0.39805397 434:0.36887541 435:0.42177227 436:0.43066502 437:0.39822587 438:0.38474813 439:0.40203911 440:0.40150747 441:0.40639848 442:0.30215389 443:0.26749164 444:0.31719467 445:0.35666499 446:0.31418264 447:0.28794241 448:0.29167697 449:0.27664453 450:0.31264159 451:0.3029905 452:0.39954063 453:0.37840456 454:0.37565249 455:0.34815413 456:0.33954969 457:0.25007409 458:0.17969686 459:0.12947601 460:0.18253063 461:0.2293084 462:0.25891885 463:0.26740071 464:0.23654255 465:0.15146132 466:0.093191668 467:0.14209642 468:0.16744544 469:0.28165802 470:0.29529396 471:0.25394589 472:0.21093637 473:0.15134294 474:0.10116874 475:0.13901795 476:0.14798711 477:0.16621359 478:0.20888098 479:0.23760974 480:0.24297319 481:0.22380231 482:0.19285101 483:0.18070509 484:0.20720093 485:0.22258525 486:0.24599919 487:0.2656813 488:0.29789013 489:0.30657896 490:0.318901 491:0.2493158 492:0.21497479 493:0.26171559 494:0.34215516 495:0.39041996 496:0.36547616 497:0.3689959 498:0.36756608 499:0.41499996 500:0.39154384 501:0.45467624 502:0.47892323 503:0.44609526 504:0.37298521 505:0.41923824 506:0.4700076 507:0.61294729 508:0.59762603 509:0.52238005 510:0.50946426 511:0.50418466 512:0.57103091 513:0.68802351 514:0.64346462 515:0.69184512 516:0.691001 517:0.65993786 518:0.64752352 519:0.66760921 520:0.70052987 521:0.74710554 522:0.66411287 523:0.63033897 524:0.65167898 525:0.68797421 526:0.71730781 527:0.6872384 528:0.68196738 529:0.73376399 530:0.78253895 531:0.87772936 532:0.89413381 533:0.79705334 534:0.68749499 535:0.63677555 536:0.63336635 537:0.79594332 538:0.86500525 539:0.95061064 540:0.93474597 541:0.87106824 542:0.78075457 543:0.75145262 544:0.70292062 545:0.71890295 546:0.71729666 547:0.65681708 548:0.67459923 549:0.75574064 550:0.86186838 551:0.85532999 552:0.77631348 553:0.72691953 554:0.78298336 555:0.88643914 556:0.98248821 557:0.9925006 558:0.97244883 559:0.92041427 560:0.93668479 561:0.97143662 562:1 563:0.8768639 564:0.67573619 565:0.5842914 566:0.60286719 567:0.60953885 568:0.61682141 569:0.53196353 570:0.5223344 571:0.53201902 572:0.44437936 573:0.34955126 574:0.26521763 575:0.29066646 576:0.27948669 577:0.30630755 578:0.27007794 579:0.25539741 580:0.19352147 581:0.11981928 582:0.048317771 583:0.104007 584:0.12173854 585:0.15617441 586:0.20489901 587:0.21812584 588:0.18050279 589:0.096962512 590:0.064869925 591:0.094683878 592:0.14182222 593:0.13853812 594:0.11189443 595:0.10769179 596:0.13268609 597:0.14168273 598:0.12743902 599:0.084507041 600:0.10189952 601:0.092665739 602:0.17470819 603:0.23993188 604:0.20808518 605:0.13353319 606:0.061610568 607:0 608:0.074557967 609:0.086481996 610:0.16495883 611:0.23209755 612:0.27416468 613:0.30915999 614:0.22247928 615:0.17337602 616:0.19683436 617:0.22312617 618:0.27636567 619:0.30724549 620:0.25577593 621:0.24096194 622:0.19876833 623:0.15123445 624:0.093825318 625:0.11139995 626:0.12001111 627:0.1581203 628:0.1775042 629:0.22610532 630:0.30758333 631:0.32197118 632:0.19624878 633:0.11259793 634:0.044648744 635:0.064539164 636:0.11740524 637:0.12045264 638:0.18119818 639:0.19860016 640:0.17191277 641:0.18678842 642:0.16996524 643:0.12632242 644:0.16554923 645:0.15776125 646:0.18540311 647:0.13249865 648:0.08777383 649:0.082328148 650:0.12169795 
1.105818716318825 2.636556435396824 1:0.40075231 2:0.40974087 3:0.41229632 4:0.46513736 5:0.52748734 6:0.53050685 7:0.47407734 8:0.3663125 9:0.28496534 10:0.30261195 11:0.3243849 12:0.39571658 13:0.37825897 14:0.34708968 15:0.35343412 16:0.35717952 17:0.35212457 18:0.35413596 19:0.31392202 20:0.35364795 21:0.33304331 22:0.25828436 23:0.23775004 24:0.23401542 25:0.21804611 26:0.24048285 27:0.20848721 28:0.2040526 29:0.14872244 30:0.088739015 31:0.078534216 32:0.099836998 33:0.15879612 34:0.16358198 35:0.12912337 36:0.10388596 37:0.025377344 38:0.049828459 39:0.10546426 40:0.12749763 41:0.17041682 42:0.15056482 43:0.12840655 44:0.21017438 45:0.22113615 46:0.27825007 47:0.30494514 48:0.27698568 49:0.30046943 50:0.32851383 51:0.29148328 52:0.25326762 53:0.23092024 54:0.22176166 55:0.28260165 56:0.31474614 57:0.28764096 58:0.18830004 59:0.063517213 60:0.035569832 61:0.12002442 62:0.20917188 63:0.23913425 64:0.19903791 65:0.17167203 66:0.2263653 67:0.23963341 68:0.27109015 69:0.27228099 70:0.26501212 71:0.25251028 72:0.24322973 73:0.20440796 74:0.15547952 75:0.053393811 76:0.021208873 77:0.05821614 78:0.17746511 79:0.24465415 80:0.26843986 81:0.23981149 82:0.22937649 83:0.15729423 84:0.16496354 85:0.19606522 86:0.23988752 87:0.24262032 88:0.18750091 89:0.18411338 90:0.23830694 91:0.24284059 92:0.25053963 93:0.22342461 94:0.20008448 95:0.24017186 96:0.25768724 97:0.26742283 98:0.29082948 99:0.2468743 100:0.22830795 101:0.24915071 102:0.27526692 103:0.29098722 104:0.30096549 105:0.30233678 106:0.31975397 107:0.33448419 108:0.31324762 109:0.26933721 110:0.24368092 111:0.26444823 112:0.2322368 113:0.21304648 114:0.18028435 115:0.18970273 116:0.25897923 117:0.30582917 118:0.28431457 119:0.2762166 120:0.24325769 121:0.29034153 122:0.28951943 123:0.26877388 124:0.27515179 125:0.29592881 126:0.28531182 127:0.25068295 128:0.25859141 129:0.32986566 130:0.32125056 131:0.25963551 132:0.26738271 133:0.3216514 134:0.39359558 135:0.34638187 136:0.29588827 137:0.29485616 138:0.30916342 139:0.24616481 140:0.25950882 141:0.34470382 142:0.43660477 143:0.42113575 144:0.34327596 145:0.2405995 146:0.2345379 147:0.23942406 148:0.25848958 149:0.26439893 150:0.25136617 151:0.23279454 152:0.25099084 153:0.28695217 154:0.29893443 155:0.31686118 156:0.29554942 157:0.26256239 158:0.23573855 159:0.26175797 160:0.28707305 161:0.28078455 162:0.20521954 163:0.14987597 164:0.14878905 165:0.22862498 166:0.32411197 167:0.37613508 168:0.36943692 169:0.27051482 170:0.15180849 171:0.086001165 172:0.10515057 173:0.15459371 174:0.23320341 175:0.25106204 176:0.19885333 177:0.13686036 178:0.13743509 179:0.20089634 180:0.27356806 181:0.23923072 182:0.17975783 183:0.12576027 184:0.14883915 185:0.17162313 186:0.14240657 187:0.09340547 188:0.090960614 189:0.11623491 190:0.15884611 191:0.18883522 192:0.19019438 193:0.20728944 194:0.25335902 195:0.23588814 196:0.20505434 197:0.1556132 198:0.10515682 199:0.11024788 200:0.12806094 201:0.11144613 202:0.12644933 203:0.12913011 204:0.12567504 205:0.09918128 206:0.10904451 207:0.13417728 208:0.17437652 209:0.19120914 210:0.14959235 211:0.12016723 212:0.13515288 213:0.18859537 214:0.24975619 215:0.25758347 216:0.2261689 217:0.22400379 218:0.25333464 219:0.27212214 220:0.23897493 221:0.22571863 222:0.2318227 223:0.25147122 224:0.23292635 225:0.23783781 226:0.19895247 227:0.17696293 228:0.11965884 229:0.18297063 230:0.19297174 231:0.18110588 232:0.13839206 233:0.19583659 234:0.27454481 235:0.31598234 236:0.18768357 237:0.11504657 238:0.19462417 239:0.28269672 240:0.24547446 241:0.13294914 242:0.064156339 243:0.11051419 244:0.21276033 245:0.21936411 246:0.20744188 247:0.19375601 248:0.14259583 249:0.11027409 250:0.12142854 251:0.14115214 252:0.17905277 253:0.15007007 254:0.14624088 255:0.16916163 256:0.19065349 257:0.162763 258:0.1261224 259:0.14882866 260:0.17982207 261:0.22639389 262:0.2849406 263:0.29943153 264:0.34338781 265:0.37545827 266:0.33790612 267:0.31795394 268:0.27265987 269:0.22295396 270:0.20403823 271:0.1733641 272:0.097071074 273:0.052963939 274:0.094198897 275:0.17750876 276:0.20904835 277:0.14207992 278:0.050404795 279:0.040982425 280:0.075834513 281:0.12059192 282:0.13281922 283:0.15294433 284:0.15512584 285:0.1194599 286:0.051511869 287:0.01592101 288:0 289:0.055827778 290:0.12019036 291:0.16460012 292:0.16445734 293:0.12153054 294:0.047824033 295:0.052680716 296:0.15253934 297:0.2439508 298:0.24568973 299:0.21896124 300:0.14648028 301:0.096238025 302:0.10287075 303:0.13806291 304:0.17694874 305:0.20283602 306:0.1985413 307:0.16361003 308:0.16834176 309:0.14289321 310:0.11292499 311:0.10503037 312:0.15504862 313:0.155596 314:0.26242247 315:0.3014006 316:0.27776363 317:0.16111661 318:0.18990509 319:0.21525612 320:0.2555989 321:0.14653482 322:0.11578691 323:0.13969764 324:0.2699261 325:0.28606078 326:0.27693048 327:0.20316727 328:0.21062966 329:0.18488723 330:0.22578049 331:0.25949612 332:0.24496217 333:0.22626036 334:0.23582599 335:0.22180881 336:0.20357727 337:0.22761199 338:0.28000244 339:0.35701367 340:0.33232903 341:0.29661521 342:0.31970114 343:0.41715616 344:0.45437655 345:0.42694324 346:0.34542081 347:0.333781 348:0.36822131 349:0.3502194 350:0.32435966 351:0.29134172 352:0.29426554 353:0.27281407 354:0.30398804 355:0.37000167 356:0.42665634 357:0.42193899 358:0.39360884 359:0.31368822 360:0.31816876 361:0.32510346 362:0.34897482 363:0.38987786 364:0.42156833 365:0.36854649 366:0.30681103 367:0.34293878 368:0.35477144 369:0.39208946 370:0.42332956 371:0.39017525 372:0.40934464 373:0.39699209 374:0.3986232 375:0.40464014 376:0.35494265 377:0.31351626 378:0.34033132 379:0.38054636 380:0.45112497 381:0.39894882 382:0.36236206 383:0.36205354 384:0.40741414 385:0.4347274 386:0.5075478 387:0.58649606 388:0.63159025 389:0.57672888 390:0.48973539 391:0.48596647 392:0.54379153 393:0.55293792 394:0.56568259 395:0.54116338 396:0.56323123 397:0.56265634 398:0.52605355 399:0.48704672 400:0.54619199 401:0.56231755 402:0.56925398 403:0.51753789 404:0.48601413 405:0.40453714 406:0.42401347 407:0.39105973 408:0.41486982 409:0.48048985 410:0.52692312 411:0.46427813 412:0.42331365 413:0.39887553 414:0.46912497 415:0.49746552 416:0.51985043 417:0.4972139 418:0.55222791 419:0.59905994 420:0.57328284 421:0.52986372 422:0.54546452 423:0.5110051 424:0.4949052 425:0.46294123 426:0.46543607 427:0.52752799 428:0.54080594 429:0.5106141 430:0.49816313 431:0.501831 432:0.49784651 433:0.54548937 434:0.51793814 435:0.60334253 436:0.67140043 437:0.72862977 438:0.70320535 439:0.70902675 440:0.66757357 441:0.67847693 442:0.6638543 443:0.70645279 444:0.78801596 445:0.87114185 446:0.84201735 447:0.77903652 448:0.75180846 449:0.76903719 450:0.71460277 451:0.58646101 452:0.52784461 453:0.55732256 454:0.62994492 455:0.602799 456:0.50027907 457:0.41536441 458:0.44414562 459:0.49064705 460:0.51568139 461:0.50499791 462:0.4742879 463:0.44758892 464:0.48079535 465:0.41443136 466:0.39861351 467:0.39480802 468:0.44167981 469:0.5262745 470:0.63803601 471:0.67067468 472:0.68841743 473:0.64549047 474:0.58431566 475:0.57783854 476:0.59635246 477:0.54880816 478:0.54058492 479:0.46030328 480:0.42640328 481:0.43532506 482:0.42842659 483:0.44275633 484:0.42440978 485:0.41880912 486:0.427178 487:0.37525415 488:0.35607347 489:0.36269173 490:0.37569472 491:0.39267254 492:0.38690859 493:0.37158224 494:0.44588497 495:0.42922434 496:0.40945849 497:0.44550592 498:0.48105532 499:0.48853239 500:0.47728184 501:0.4279837 502:0.493339 503:0.54999405 504:0.59334821 505:0.57033885 506:0.54680896 507:0.56539643 508:0.5518775 509:0.55074877 510:0.56438631 511:0.51674223 512:0.51506531 513:0.48308352 514:0.51036507 515:0.56831527 516:0.58842534 517:0.55874187 518:0.5150668 519:0.51217782 520:0.5755592 521:0.58402783 522:0.5648737 523:0.58534247 524:0.64747328 525:0.74485648 526:0.85126388 527:0.89927876 528:0.97548097 529:0.99956471 530:0.99860501 531:0.95027387 532:0.951819 533:0.92685419 534:0.90603173 535:0.84704 536:0.8521632 537:0.84016764 538:0.88039154 539:0.90566158 540:0.95512372 541:0.97174513 542:0.94158685 543:0.91340584 544:0.93313879 545:1 546:0.9969967 547:0.9521547 548:0.92765051 549:0.88648278 550:0.83125365 551:0.80847549 552:0.79280776 553:0.86174542 554:0.85235596 555:0.8062734 556:0.77587044 557:0.79954821 558:0.85423964 559:0.92255563 560:0.91149288 561:0.9508462 562:0.91377604 563:0.84542507 564:0.73563504 565:0.64243841 566:0.53877199 567:0.56854528 568:0.57416928 569:0.61419475 570:0.5767169 571:0.5063405 572:0.43378788 573:0.43128005 574:0.42690626 575:0.37828207 576:0.29810369 577:0.22988726 578:0.17544255 579:0.19543539 580:0.18504511 581:0.11765408 582:0.107954 583:0.14793278 584:0.19219249 585:0.16260862 586:0.067968383 587:0.0068840943 588:0.011828589 589:0.071403854 590:0.1295999 591:0.13202998 592:0.10715025 593:0.069675237 594:0.088610187 595:0.1353393 596:0.1116461 597:0.058896758 598:0.069202453 599:0.17650712 600:0.22271338 601:0.1951592 602:0.15014258 603:0.13215292 604:0.10643939 605:0.14228395 606:0.12588879 607:0.1732014 608:0.20465882 609:0.16326293 610:0.16115116 611:0.14110014 612:0.099135727 613:0.12063485 614:0.14256096 615:0.14303929 616:0.16986005 617:0.13578838 618:0.12655462 619:0.12722963 620:0.11769442 621:0.16101214 622:0.21961811 623:0.18017696 624:0.10438059 625:0.057220012 626:0.087217063 627:0.13572817 628:0.11885206 629:0.060300905 630:0.070526831 631:0.13169594 632:0.1990919 633:0.18118611 634:0.1368499 635:0.10558399 636:0.14001946 637:0.14419977 638:0.136536 639:0.1425053 640:0.15829198 641:0.18540689 642:0.18994768 643:0.16431755 644:0.14193365 645:0.17309216 646:0.13595593 647:0.14892252 648:0.11068127 649:0.12160926 650:0.091634966 
2.202668168394573 1.008199809324034 1:0.31812122 2:0.3595306 3:0.33683851 4:0.30239832 5:0.30011559 6:0.34125146 7:0.35047337 8:0.38503605 9:0.36747313 10:0.38288397 11:0.40320233 12:0.35264784 13:0.31234452 14:0.34502551 15:0.31724596 16:0.28325003 17:0.26958871 18:0.26132545 19:0.29417318 20:0.29388091 21:0.27345732 22:0.25944427 23:0.247961 24:0.24256398 25:0.20959122 26:0.18001385 27:0.16398086 28:0.12879756 29:0.13319935 30:0.2134461 31:0.26817772 32:0.29263559 33:0.27623358 34:0.28084531 35:0.2426209 36:0.19426426 37:0.12971859 38:0.13391045 39:0.1718619 40:0.20201872 41:0.23613666 42:0.31564537 43:0.30970141 44:0.32567036 45:0.30996218 46:0.25153223 47:0.23298678 48:0.21215503 49:0.23827656 50:0.31084305 51:0.29265693 52:0.23443134 53:0.21968636 54:0.21063779 55:0.26515439 56:0.30258739 57:0.30768147 58:0.30487573 59:0.26853403 60:0.24228086 61:0.25806427 62:0.24734496 63:0.23388799 64:0.19861419 65:0.17313516 66:0.19734602 67:0.24258786 68:0.28089613 69:0.26548427 70:0.23329937 71:0.20619585 72:0.1837579 73:0.20365593 74:0.23711918 75:0.23342036 76:0.24617995 77:0.26293316 78:0.3001588 79:0.30424035 80:0.30221584 81:0.24602745 82:0.22827189 83:0.23112492 84:0.26388878 85:0.27084216 86:0.27648926 87:0.2768532 88:0.32993236 89:0.33582446 90:0.31688458 91:0.28271735 92:0.30383423 93:0.38241327 94:0.38463807 95:0.34944052 96:0.33724868 97:0.35309565 98:0.36565292 99:0.36291528 100:0.37684548 101:0.41943151 102:0.45212013 103:0.42095995 104:0.36799717 105:0.32167521 106:0.30888358 107:0.29567873 108:0.31482345 109:0.3148382 110:0.32601193 111:0.27585137 112:0.28030041 113:0.33616552 114:0.37903723 115:0.38670629 116:0.3420983 117:0.32477018 118:0.33924475 119:0.33492479 120:0.32685721 121:0.3103683 122:0.31329858 123:0.30349773 124:0.30810946 125:0.39253587 126:0.45175314 127:0.46017295 128:0.41016641 129:0.33319509 130:0.33456135 131:0.40488732 132:0.39845693 133:0.36049482 134:0.31531447 135:0.31401274 136:0.34522021 137:0.42352679 138:0.4147898 139:0.40142992 140:0.37539685 141:0.32833734 142:0.30509683 143:0.28374103 144:0.28847626 145:0.34583473 146:0.40137249 147:0.38901851 148:0.34465244 149:0.38651875 150:0.41572556 151:0.40331313 152:0.3896254 153:0.36690435 154:0.37763688 155:0.3748174 156:0.32876331 157:0.34711459 158:0.32950082 159:0.30360347 160:0.31471467 161:0.33919442 162:0.36736739 163:0.35843015 164:0.33304259 165:0.3459135 166:0.37086087 167:0.34162101 168:0.33357173 169:0.39133427 170:0.41502565 171:0.43172702 172:0.40316421 173:0.34566799 174:0.37316799 175:0.36737704 176:0.36827368 177:0.42579427 178:0.46577024 179:0.51429665 180:0.54305977 181:0.49284482 182:0.4480035 183:0.38877502 184:0.3978292 185:0.4417744 186:0.45871925 187:0.45603243 188:0.40456352 189:0.35683513 190:0.34336901 191:0.38004464 192:0.38571665 193:0.39551851 194:0.36556399 195:0.33998632 196:0.34825671 197:0.34248355 198:0.31843841 199:0.37717587 200:0.3824077 201:0.37766382 202:0.39958787 203:0.3836225 204:0.3698692 205:0.4062846 206:0.42815578 207:0.4336687 208:0.38650703 209:0.34101665 210:0.35274237 211:0.41554564 212:0.42511216 213:0.39948878 214:0.37767196 215:0.36055732 216:0.34325463 217:0.33861446 218:0.33176476 219:0.36921656 220:0.43309078 221:0.43699595 222:0.43460092 223:0.39337558 224:0.35774598 225:0.43793884 226:0.45197934 227:0.40234077 228:0.36401623 229:0.34701192 230:0.41330001 231:0.47438219 232:0.42309019 233:0.44306648 234:0.42964357 235:0.41904622 236:0.39409429 237:0.36561787 238:0.34904966 239:0.33919695 240:0.30856335 241:0.34446386 242:0.379269 243:0.41464037 244:0.41256908 245:0.38243005 246:0.35038137 247:0.28487656 248:0.29209784 249:0.37858483 250:0.45698345 251:0.49729794 252:0.50202096 253:0.4493337 254:0.46681276 255:0.43780261 256:0.37131783 257:0.33032325 258:0.31291839 259:0.33400428 260:0.38030642 261:0.3490034 262:0.30776381 263:0.29247651 264:0.29565635 265:0.34147716 266:0.37584618 267:0.38625899 268:0.38540965 269:0.35543478 270:0.31533885 271:0.3543562 272:0.36404419 273:0.41532657 274:0.38991156 275:0.30224887 276:0.29140401 277:0.30477864 278:0.33806702 279:0.38177335 280:0.35831779 281:0.37613794 282:0.38368198 283:0.36331835 284:0.38215202 285:0.34015051 286:0.33695796 287:0.33971491 288:0.34235293 289:0.41845611 290:0.48517624 291:0.47922924 292:0.43525356 293:0.38195887 294:0.37412003 295:0.39769703 296:0.40360489 297:0.41347945 298:0.41627705 299:0.42650792 300:0.39915532 301:0.39860842 302:0.41635281 303:0.41337168 304:0.38264862 305:0.35583022 306:0.40491983 307:0.45157474 308:0.47479594 309:0.48435077 310:0.4641366 311:0.43294999 312:0.4352617 313:0.45155746 314:0.54887712 315:0.58829349 316:0.56479776 317:0.55801314 318:0.5733574 319:0.55504775 320:0.49635151 321:0.39631501 322:0.4253729 323:0.51813579 324:0.54227751 325:0.53819948 326:0.48005623 327:0.42246395 328:0.46707401 329:0.49033538 330:0.51886976 331:0.55691475 332:0.52404565 333:0.5269317 334:0.5558641 335:0.58045107 336:0.57788575 337:0.57886875 338:0.57024866 339:0.52566457 340:0.54659235 341:0.56137037 342:0.55180895 343:0.54518747 344:0.53300017 345:0.55364645 346:0.6008721 347:0.56345844 348:0.521155 349:0.45478001 350:0.50854331 351:0.53665936 352:0.54348522 353:0.53354406 354:0.46974456 355:0.4400025 356:0.49238938 357:0.51113153 358:0.53757483 359:0.5218575 360:0.54133105 361:0.62332278 362:0.64817154 363:0.61146438 364:0.49624982 365:0.46827307 366:0.50576657 367:0.59862548 368:0.63125718 369:0.5881893 370:0.52688497 371:0.534675 372:0.54163551 373:0.59778529 374:0.58150935 375:0.57565385 376:0.6016112 377:0.62788773 378:0.58086485 379:0.53849834 380:0.49969757 381:0.53311557 382:0.58682501 383:0.62343055 384:0.61524963 385:0.59501308 386:0.529338 387:0.49241886 388:0.44609639 389:0.49824944 390:0.56580979 391:0.56788564 392:0.5895012 393:0.58916926 394:0.55892193 395:0.59417182 396:0.58693939 397:0.59487993 398:0.65071046 399:0.5961684 400:0.58472782 401:0.62372637 402:0.66714597 403:0.69205779 404:0.72298568 405:0.68240029 406:0.65130055 407:0.63491482 408:0.6033963 409:0.58597672 410:0.54321939 411:0.49180028 412:0.51501083 413:0.56417358 414:0.59422165 415:0.60660005 416:0.5908283 417:0.56097746 418:0.50725228 419:0.53165579 420:0.63619518 421:0.72217548 422:0.70185655 423:0.59363157 424:0.54926598 425:0.58170199 426:0.66255969 427:0.7283141 428:0.73139024 429:0.72342736 430:0.70417893 431:0.70097369 432:0.71449316 433:0.72010976 434:0.71423852 435:0.70637017 436:0.68671715 437:0.69167048 438:0.66268778 439:0.62638879 440:0.60710323 441:0.64220268 442:0.64679813 443:0.6579302 444:0.63023907 445:0.64047194 446:0.66900736 447:0.67658949 448:0.61614978 449:0.54859656 450:0.52721995 451:0.56948525 452:0.59489566 453:0.6074819 454:0.56009561 455:0.52043986 456:0.54401278 457:0.51323026 458:0.50375628 459:0.53145248 460:0.52243644 461:0.51446694 462:0.47709697 463:0.40413147 464:0.459409 465:0.4778223 466:0.50127786 467:0.4832854 468:0.44665906 469:0.4305605 470:0.46395412 471:0.48583549 472:0.56021249 473:0.53842163 474:0.55205244 475:0.52529603 476:0.51614988 477:0.55530345 478:0.5628683 479:0.54167008 480:0.55472398 481:0.50497055 482:0.49559313 483:0.51671052 484:0.5317874 485:0.56339794 486:0.51929367 487:0.45984206 488:0.37844861 489:0.37488601 490:0.43491301 491:0.5169037 492:0.56510836 493:0.54516762 494:0.53051263 495:0.55483633 496:0.54661018 497:0.56015611 498:0.52891254 499:0.49408606 500:0.52630603 501:0.53420538 502:0.57970285 503:0.61377251 504:0.56081891 505:0.56460971 506:0.60419631 507:0.60912216 508:0.60793382 509:0.59859395 510:0.59075564 511:0.6270892 512:0.60416788 513:0.59452361 514:0.63354957 515:0.69117028 516:0.67922902 517:0.64931673 518:0.61065871 519:0.61426252 520:0.6689443 521:0.73668563 522:0.75956476 523:0.76843238 524:0.689771 525:0.64844346 526:0.64195919 527:0.71816605 528:0.75899392 529:0.72451258 530:0.68173647 531:0.63042712 532:0.65719265 533:0.74811804 534:0.75826555 535:0.76754946 536:0.74671113 537:0.71790737 538:0.77726239 539:0.77134538 540:0.77162391 541:0.75615257 542:0.66872829 543:0.66576749 544:0.73399317 545:0.86361927 546:0.9656406 547:1 548:0.90714055 549:0.8988148 550:0.84776568 551:0.85417879 552:0.89234579 553:0.946163 554:0.92964458 555:0.89918584 556:0.79487664 557:0.8316946 558:0.88655686 559:0.88974029 560:0.79880875 561:0.69162112 562:0.6700722 563:0.68155295 564:0.65293372 565:0.58230686 566:0.50678617 567:0.50574929 568:0.50573403 569:0.5058921 570:0.48951653 571:0.4656198 572:0.43818587 573:0.44269747 574:0.44580412 575:0.44111514 576:0.38679779 577:0.32492572 578:0.27663767 579:0.28936067 580:0.30586892 581:0.28368309 582:0.27253935 583:0.27981195 584:0.28106233 585:0.22970018 586:0.18030001 587:0.17162961 588:0.23441049 589:0.26033634 590:0.20971017 591:0.14578968 592:0.16223896 593:0.2248389 594:0.22354378 595:0.1827642 596:0.14968878 597:0.1627564 598:0.23750497 599:0.25283906 600:0.21020727 601:0.19656324 602:0.15088834 603:0.14227182 604:0.1450364 605:0.15199895 606:0.21609937 607:0.26148507 608:0.24523555 609:0.18321607 610:0.086373158 611:0.085634105 612:0.096738711 613:0.15652832 614:0.25578916 615:0.26799929 616:0.23702921 617:0.23954575 618:0.22814736 619:0.20268966 620:0.095193513 621:0.023101259 622:0.047248069 623:0.12804021 624:0.13776226 625:0.11215615 626:0.080148645 627:0.12633592 628:0.14817967 629:0.17571321 630:0.17322564 631:0.11917411 632:0.12153664 633:0.16397375 634:0.1424609 635:0.132412 636:0.12071626 637:0.09365797 638:0.12924588 639:0.087330267 640:0.050795421 641:0.05958375 642:0.030344388 643:0.0013830563 644:0.015889136 645:0 646:0.025514618 647:0.003372502 648:0.03709295 649:0.093082584 650:0.12784807 
0.864743474586102 0.8849752707576384 1:0.74954331 2:0.71874934 3:0.78800237 4:0.78159624 5:0.6775263 6:0.65002519 7:0.59948903 8:0.49777377 9:0.53334129 10:0.51041788 11:0.43771479 12:0.42873949 13:0.41675791 14:0.50365973 15:0.55909228 16:0.48048598 17:0.48309886 18:0.55190927 19:0.45853189 20:0.30128825 21:0.23684414 22:0.20286424 23:0.29751205 24:0.27297425 25:0.20802154 26:0.28120911 27:0.38122505 28:0.3657867 29:0.47577181 30:0.48352185 31:0.49006522 32:0.52043527 33:0.55056518 34:0.44981125 35:0.40446851 36:0.31001422 37:0.28153148 38:0.35448393 39:0.41849673 40:0.40082449 41:0.45178449 42:0.4090164 43:0.34440157 44:0.31730986 45:0.32235143 46:0.37177289 47:0.42055035 48:0.32631862 49:0.335042 50:0.31739053 51:0.32585236 52:0.27253017 53:0.18895769 54:0.13174388 55:0.13442224 56:0.1220201 57:0.15234697 58:0.1957406 59:0.17401655 60:0.14200768 61:0.11612861 62:0.11127813 63:0.038689572 64:0.04266176 65:0.013966599 66:0.1997087 67:0.30642906 68:0.3622424 69:0.36673823 70:0.2344604 71:0.097436979 72:0.10631106 73:0.060426623 74:0.082211517 75:0.12229966 76:0.14975697 77:0.26488712 78:0.26613432 79:0.2584627 80:0.28399116 81:0.32022443 82:0.3564693 83:0.36756265 84:0.3392407 85:0.41585812 86:0.43519339 87:0.48628184 88:0.60093862 89:0.67798311 90:0.64141655 91:0.53769362 92:0.42313594 93:0.44820675 94:0.52443659 95:0.47876889 96:0.47784638 97:0.49421886 98:0.57274163 99:0.75346309 100:0.72746056 101:0.59865457 102:0.52044648 103:0.5380249 104:0.6807245 105:0.7530542 106:0.57917362 107:0.49300221 108:0.35209772 109:0.31834394 110:0.22655192 111:0.2831924 112:0.40516177 113:0.44541773 114:0.36001718 115:0.28323174 116:0.21918759 117:0.39418018 118:0.42158189 119:0.32885894 120:0.34232354 121:0.37727961 122:0.37276268 123:0.32243049 124:0.1560389 125:0.15152495 126:0.27495429 127:0.34023494 128:0.2889953 129:0.17828044 130:0.15370648 131:0.22115459 132:0.2420978 133:0.25604635 134:0.23179451 135:0.29227802 136:0.32229799 137:0.27857661 138:0.2579692 139:0.26754314 140:0.34453174 141:0.38460407 142:0.40047601 143:0.44562018 144:0.36303309 145:0.30431813 146:0.3151896 147:0.27795479 148:0.34050459 149:0.34841418 150:0.38329092 151:0.42082453 152:0.27882904 153:0.22832216 154:0.24256657 155:0.29058748 156:0.27385432 157:0.26812032 158:0.33559728 159:0.45465034 160:0.38037983 161:0.2293871 162:0.1737276 163:0.24785905 164:0.29203075 165:0.22816662 166:0.11635438 167:0.20574692 168:0.36852318 169:0.42778111 170:0.36677563 171:0.22353433 172:0.19792615 173:0.30723831 174:0.3066085 175:0.37782115 176:0.38807303 177:0.50014031 178:0.577178 179:0.47512096 180:0.38748744 181:0.33260348 182:0.21392313 183:0.20934491 184:0.22273177 185:0.29007488 186:0.36865976 187:0.27285245 188:0.12969281 189:0.1452947 190:0.22829808 191:0.26908767 192:0.24436609 193:0.20027885 194:0.2307325 195:0.29101482 196:0.33913863 197:0.39569196 198:0.38540891 199:0.31475174 200:0.26565051 201:0.25516087 202:0.31947616 203:0.29997402 204:0.24024127 205:0.24890235 206:0.30147764 207:0.35946193 208:0.38243732 209:0.39868754 210:0.35417902 211:0.29107606 212:0.22303456 213:0.20500275 214:0.20994847 215:0.27247599 216:0.32982022 217:0.39188322 218:0.38120624 219:0.2770378 220:0.16842219 221:0.16739663 222:0.22135064 223:0.27026021 224:0.32682553 225:0.36883596 226:0.40991354 227:0.34835172 228:0.21531799 229:0.19972964 230:0.29232696 231:0.3275491 232:0.380602 233:0.43314227 234:0.52279806 235:0.5055542 236:0.38620999 237:0.29533777 238:0.32111621 239:0.34576553 240:0.37157345 241:0.27431977 242:0.24675167 243:0.25058138 244:0.27317697 245:0.32263887 246:0.31385425 247:0.33725461 248:0.44292006 249:0.4535369 250:0.37408057 251:0.25498542 252:0.18532085 253:0.38931197 254:0.56888032 255:0.68929935 256:0.56675196 257:0.33904108 258:0.19361547 259:0.23459458 260:0.29733676 261:0.34396368 262:0.19585805 263:0.082538344 264:0 265:0.045189373 266:0.12827492 267:0.17812836 268:0.27495039 269:0.24190858 270:0.19737485 271:0.16763334 272:0.16104349 273:0.20725885 274:0.17554937 275:0.14818706 276:0.20092283 277:0.25243971 278:0.28457314 279:0.28315991 280:0.20624666 281:0.1186632 282:0.035091251 283:0.11200673 284:0.28132963 285:0.35638416 286:0.20012647 287:0.092049442 288:0.044750072 289:0.15299301 290:0.31800658 291:0.33359635 292:0.35184264 293:0.32194617 294:0.22964589 295:0.24457721 296:0.21062072 297:0.19504026 298:0.19587699 299:0.075934716 300:0.077949785 301:0.14377347 302:0.21025065 303:0.22183931 304:0.14569159 305:0.066675007 306:0.0957679 307:0.077070504 308:0.12235922 309:0.1931296 310:0.32489753 311:0.47507384 312:0.44998264 313:0.32271111 314:0.31479904 315:0.22335131 316:0.26420388 317:0.32909408 318:0.34963799 319:0.43929994 320:0.53704822 321:0.54429209 322:0.60321462 323:0.55039209 324:0.45794711 325:0.38075981 326:0.29870665 327:0.24871118 328:0.239297 329:0.25920904 330:0.35857737 331:0.4022989 332:0.44441837 333:0.33812219 334:0.18126509 335:0.2077859 336:0.28595191 337:0.38709497 338:0.45013088 339:0.37429267 340:0.4313969 341:0.47434247 342:0.36602017 343:0.36860445 344:0.39957389 345:0.507231 346:0.51777774 347:0.40439406 348:0.31995779 349:0.35020474 350:0.41451088 351:0.47751227 352:0.49285704 353:0.41558161 354:0.36511943 355:0.31383318 356:0.29654202 357:0.37566587 358:0.39652082 359:0.41714984 360:0.4887155 361:0.45224303 362:0.3599183 363:0.37189496 364:0.36557743 365:0.4766627 366:0.47933042 367:0.47147533 368:0.41131878 369:0.41703224 370:0.41436487 371:0.44375554 372:0.47347605 373:0.48561075 374:0.45477685 375:0.34784967 376:0.30199564 377:0.31619599 378:0.36192957 379:0.39710897 380:0.4504565 381:0.4641135 382:0.47013339 383:0.39152214 384:0.30727851 385:0.35390788 386:0.4386166 387:0.55010289 388:0.55037183 389:0.52814859 390:0.52925009 391:0.5603506 392:0.59441376 393:0.60774547 394:0.58029401 395:0.60937113 396:0.61913025 397:0.52469021 398:0.50560361 399:0.42540175 400:0.44936502 401:0.49431241 402:0.46751964 403:0.54485333 404:0.57412195 405:0.47189057 406:0.55481178 407:0.53492367 408:0.48428723 409:0.40990385 410:0.24111004 411:0.2499298 412:0.36248863 413:0.38280481 414:0.45045528 415:0.39541265 416:0.42861879 417:0.44763282 418:0.43362868 419:0.4052467 420:0.36579558 421:0.31135157 422:0.3334485 423:0.29269898 424:0.31869262 425:0.42164907 426:0.55508274 427:0.61805034 428:0.67130435 429:0.61850721 430:0.54229373 431:0.46901986 432:0.52087241 433:0.61952507 434:0.67601192 435:0.61591589 436:0.53843009 437:0.5526818 438:0.72875053 439:0.76689827 440:0.76702422 441:0.67221123 442:0.56965935 443:0.5751977 444:0.47972435 445:0.44774091 446:0.47346035 447:0.50425637 448:0.52838427 449:0.5556888 450:0.43426797 451:0.46096659 452:0.43265545 453:0.41614866 454:0.4918645 455:0.5398134 456:0.51709992 457:0.54222763 458:0.5244686 459:0.39053932 460:0.30120745 461:0.22842863 462:0.27932054 463:0.34122625 464:0.37242442 465:0.26678476 466:0.20562069 467:0.18441622 468:0.23999335 469:0.29203877 470:0.32008865 471:0.24797794 472:0.11958721 473:0.083465576 474:0.14797492 475:0.26386586 476:0.37133431 477:0.36307517 478:0.38754961 479:0.37634459 480:0.32444879 481:0.2880713 482:0.27435789 483:0.28243828 484:0.20933487 485:0.071124427 486:0.10603806 487:0.24823155 488:0.299512 489:0.29173875 490:0.316668 491:0.43056324 492:0.54225767 493:0.57831657 494:0.54622531 495:0.448838 496:0.49619541 497:0.55070704 498:0.55787694 499:0.55984366 500:0.43089682 501:0.31145686 502:0.37266806 503:0.37132871 504:0.35677695 505:0.42440942 506:0.49042258 507:0.55703855 508:0.59691274 509:0.55744135 510:0.55516231 511:0.59423012 512:0.60495669 513:0.51537031 514:0.4695701 515:0.50356305 516:0.61271596 517:0.65049863 518:0.70695579 519:0.67045403 520:0.64654088 521:0.74747723 522:0.76169109 523:0.71524096 524:0.65219682 525:0.59670973 526:0.62870359 527:0.76672333 528:0.67484921 529:0.57331055 530:0.47371981 531:0.47287729 532:0.62485462 533:0.74743831 534:0.7554971 535:0.76199782 536:0.62321436 537:0.60560745 538:0.74794459 539:0.85700983 540:0.94955534 541:0.86661845 542:0.6386174 543:0.58218867 544:0.62082273 545:0.68910927 546:0.7329759 547:0.68678612 548:0.63811952 549:0.6449393 550:0.65276647 551:0.7051158 552:0.70873076 553:0.80371612 554:0.79987413 555:0.76309252 556:0.76410657 557:0.86180949 558:0.87460631 559:0.9456023 560:0.91789716 561:0.95489073 562:1 563:0.93818343 564:0.82785112 565:0.76198459 566:0.62462521 567:0.52455795 568:0.4560177 569:0.39484107 570:0.45884603 571:0.49774235 572:0.47771755 573:0.41964242 574:0.26915559 575:0.19935055 576:0.1939051 577:0.24614242 578:0.32173076 579:0.31783536 580:0.20738664 581:0.17949905 582:0.20284857 583:0.29725826 584:0.3196502 585:0.19872028 586:0.058908023 587:0.053710792 588:0.12580059 589:0.24723467 590:0.25064689 591:0.19831322 592:0.16659713 593:0.17190109 594:0.17742211 595:0.22816294 596:0.20933312 597:0.22893819 598:0.23856632 599:0.14960194 600:0.068064153 601:0.077463455 602:0.083128564 603:0.1242737 604:0.10930461 605:0.040211506 606:0.037231296 607:0.15340349 608:0.16049327 609:0.15963441 610:0.16852325 611:0.13924617 612:0.16468088 613:0.11501115 614:0.056865945 615:0.13802522 616:0.18590868 617:0.19060344 618:0.2276186 619:0.23544082 620:0.29570112 621:0.32982045 622:0.24786071 623:0.17922848 624:0.21535082 625:0.23862568 626:0.20716612 627:0.23424284 628:0.13685659 629:0.13028686 630:0.1649521 631:0.11959065 632:0.11411805 633:0.14375941 634:0.15285477 635:0.24316934 636:0.26879942 637:0.18804237 638:0.13041782 639:0.15132047 640:0.21603876 641:0.25427499 642:0.18954696 643:0.11108153 644:0.11923273 645:0.18859637 646:0.23123896 647:0.24987891 648:0.21861961 649:0.20318797 650:0.18093099 
0.8430114613794316 1.03506799860126 1:0.42989507 2:0.52621084 3:0.61864185 4:0.70321488 5:0.71627164 6:0.53560382 7:0.43769747 8:0.49333984 9:0.49638602 10:0.45511603 11:0.38561004 12:0.28166729 13:0.46255103 14:0.46754494 15:0.34171113 16:0.23546767 17:0.28878677 18:0.43894193 19:0.55868191 20:0.42947325 21:0.25733107 22:0.22784483 23:0.17651179 24:0.15321088 25:0.246151 26:0.36155072 27:0.3525075 28:0.39739767 29:0.28929365 30:0.24454576 31:0.24021903 32:0.14003262 33:0.12462911 34:0.057285912 35:0.022771552 36:0.10996626 37:0.20975998 38:0.15331873 39:0.10997666 40:0.051231317 41:0.25269982 42:0.40977606 43:0.48718172 44:0.32864228 45:0.15934657 46:0.055048726 47:0.19150726 48:0.25009191 49:0.29290184 50:0.20650633 51:0.24302648 52:0.31902057 53:0.30448136 54:0.17779243 55:0.2456665 56:0.23615316 57:0.29700196 58:0.21806356 59:0.23566289 60:0.28834131 61:0.27983105 62:0.1967033 63:0.14084637 64:0.1557475 65:0.19424056 66:0.098556034 67:0.17803976 68:0.29590741 69:0.41221884 70:0.40934241 71:0.24758649 72:0.20158964 73:0.26033625 74:0.29916552 75:0.22640741 76:0.043246862 77:0.096513934 78:0.13088344 79:0.31950787 80:0.4187963 81:0.34687361 82:0.24391107 83:0.12184492 84:0.018678024 85:0.19169149 86:0.27375424 87:0.26577875 88:0.26055905 89:0.24519923 90:0.27684107 91:0.25471988 92:0.16465695 93:0.1168506 94:0.18664871 95:0.21522477 96:0.3185845 97:0.36373132 98:0.3428725 99:0.33996499 100:0.36073104 101:0.31175211 102:0.32754168 103:0.35098734 104:0.49246413 105:0.54719692 106:0.43758807 107:0.22467716 108:0.18021061 109:0.23262525 110:0.34889409 111:0.22742257 112:0.15935206 113:0.20679775 114:0.26023874 115:0.31787044 116:0.30379438 117:0.26582545 118:0.34171224 119:0.34980708 120:0.31293443 121:0.29211923 122:0.16686028 123:0.080444232 124:0.04806434 125:0.14320844 126:0.26116362 127:0.29361558 128:0.2398776 129:0.19530717 130:0.24637873 131:0.27197728 132:0.14439897 133:0.083165362 134:0.040787518 135:0.11006668 136:0.21916556 137:0.23808149 138:0.21167254 139:0.31168911 140:0.38380224 141:0.38122699 142:0.34278128 143:0.27097085 144:0.18590714 145:0.11284556 146:0.09313494 147:0.15332852 148:0.30465516 149:0.26417074 150:0.21844995 151:0.15206838 152:0.082797699 153:0.1009916 154:0.13850579 155:0.15589531 156:0.17556171 157:0.031291839 158:0.039707705 159:0.1326056 160:0.18033344 161:0.22343783 162:0.11724067 163:0.10345042 164:0.21683931 165:0.14550579 166:0.16735893 167:0.1425743 168:0.10600483 169:0.16909234 170:0.12970662 171:0.065034643 172:0.074286789 173:0 174:0.048406549 175:0.10062481 176:0.079036489 177:0.11237495 178:0.13111959 179:0.19587497 180:0.27213845 181:0.25723454 182:0.24974822 183:0.23243338 184:0.2451632 185:0.26545826 186:0.29504985 187:0.34440109 188:0.23307653 189:0.18197554 190:0.25027078 191:0.27746201 192:0.35555127 193:0.41326118 194:0.34558699 195:0.36441982 196:0.29578426 197:0.20055217 198:0.26545244 199:0.32017744 200:0.30575767 201:0.30515054 202:0.1785669 203:0.090035982 204:0.086896479 205:0.20025407 206:0.35138136 207:0.39200404 208:0.25298259 209:0.11311013 210:0.13843301 211:0.33234832 212:0.39378047 213:0.30769944 214:0.17707901 215:0.11528338 216:0.1357639 217:0.21373633 218:0.2976405 219:0.34154484 220:0.32247922 221:0.17344967 222:0.1044315 223:0.14684747 224:0.20106849 225:0.22949372 226:0.17431211 227:0.10334455 228:0.1100573 229:0.19082187 230:0.23759697 231:0.3218253 232:0.37187898 233:0.33646545 234:0.3296755 235:0.37468719 236:0.33239576 237:0.21751246 238:0.062556669 239:0.049333606 240:0.1868622 241:0.31705397 242:0.25147429 243:0.16075411 244:0.23087528 245:0.23786505 246:0.21701872 247:0.25093278 248:0.16893774 249:0.13793431 250:0.12185062 251:0.069435351 252:0.10436765 253:0.15618812 254:0.1522955 255:0.18735243 256:0.16798094 257:0.18960313 258:0.17480502 259:0.10742915 260:0.02931525 261:0.041501343 262:0.063913547 263:0.15619452 264:0.15361115 265:0.14039218 266:0.13950913 267:0.11909796 268:0.089828707 269:0.084646754 270:0.13325669 271:0.16155863 272:0.19675809 273:0.21084291 274:0.17255631 275:0.081949309 276:0.11652173 277:0.1914252 278:0.33965454 279:0.42714763 280:0.3625617 281:0.27769637 282:0.19623205 283:0.14630713 284:0.19289491 285:0.21971853 286:0.22570929 287:0.2147955 288:0.13473383 289:0.098243967 290:0.12020737 291:0.14571822 292:0.21470711 293:0.2419574 294:0.28635758 295:0.33975765 296:0.2733784 297:0.25114581 298:0.22135313 299:0.13667776 300:0.21570645 301:0.22286311 302:0.18961103 303:0.24330617 304:0.18775418 305:0.10861286 306:0.1495313 307:0.15841644 308:0.2706739 309:0.36015987 310:0.27438229 311:0.047720231 312:0.038887832 313:0.24458735 314:0.43270132 315:0.45141536 316:0.34744251 317:0.15803257 318:0.20731378 319:0.23195744 320:0.28287739 321:0.35404438 322:0.39733714 323:0.29173502 324:0.22096288 325:0.17792538 326:0.15620737 327:0.06612125 328:0.11373667 329:0.22109778 330:0.35556436 331:0.40500921 332:0.34145534 333:0.31846821 334:0.35633543 335:0.33433712 336:0.31702748 337:0.28843331 338:0.269445 339:0.22932869 340:0.24335112 341:0.24077135 342:0.25283802 343:0.22813439 344:0.19408612 345:0.14850555 346:0.14567001 347:0.17705619 348:0.26026538 349:0.26329738 350:0.22224662 351:0.2028406 352:0.23983483 353:0.24129367 354:0.24676919 355:0.19030963 356:0.17701764 357:0.19899929 358:0.19911395 359:0.2318102 360:0.2798087 361:0.28352836 362:0.21796596 363:0.13684554 364:0.18303262 365:0.29291052 366:0.35957706 367:0.27121216 368:0.28529793 369:0.3084406 370:0.39302027 371:0.37862664 372:0.43515405 373:0.49510133 374:0.60143203 375:0.50494647 376:0.38124925 377:0.24387112 378:0.29976183 379:0.33665124 380:0.31241649 381:0.27079782 382:0.25318679 383:0.33352727 384:0.3204788 385:0.20240495 386:0.15447515 387:0.15692997 388:0.17448917 389:0.30068472 390:0.42900717 391:0.47127992 392:0.48776144 393:0.41718942 394:0.43441525 395:0.51018596 396:0.43936417 397:0.38354376 398:0.41099265 399:0.46795228 400:0.56992739 401:0.5286985 402:0.41455713 403:0.32308128 404:0.299422 405:0.37767696 406:0.43709502 407:0.36663511 408:0.38895297 409:0.45386717 410:0.51758742 411:0.51081121 412:0.46626607 413:0.40972489 414:0.38068068 415:0.29378253 416:0.21095841 417:0.228631 418:0.30751938 419:0.40462744 420:0.48593026 421:0.52231944 422:0.5212276 423:0.51912397 424:0.5120557 425:0.54155511 426:0.51302516 427:0.41583487 428:0.34634832 429:0.32716972 430:0.30932689 431:0.52653891 432:0.71340746 433:0.76103586 434:0.68948168 435:0.6930989 436:0.78967643 437:1 438:0.93021971 439:0.7247678 440:0.52150726 441:0.41797423 442:0.39604148 443:0.52279186 444:0.54358608 445:0.58919334 446:0.59107083 447:0.59150547 448:0.52935332 449:0.46705258 450:0.36367401 451:0.37246174 452:0.39470342 453:0.32623842 454:0.29063177 455:0.32311249 456:0.27467111 457:0.34510893 458:0.40207872 459:0.39196032 460:0.41972655 461:0.38526878 462:0.32070664 463:0.3526226 464:0.32903713 465:0.38771352 466:0.37464696 467:0.32728657 468:0.30916142 469:0.33161873 470:0.35045466 471:0.31620285 472:0.20848784 473:0.21120062 474:0.28341252 475:0.36664298 476:0.39941108 477:0.34030789 478:0.32827601 479:0.28835738 480:0.31504813 481:0.36868736 482:0.34411573 483:0.35801095 484:0.3504914 485:0.22715059 486:0.24339969 487:0.2856946 488:0.27663752 489:0.2574774 490:0.17955385 491:0.043143049 492:0.13179411 493:0.21011554 494:0.30432001 495:0.37760374 496:0.37188321 497:0.36267015 498:0.41282094 499:0.39785784 500:0.50071442 501:0.55244321 502:0.63748366 503:0.6144399 504:0.55931091 505:0.53025657 506:0.52667564 507:0.5610916 508:0.59047741 509:0.57446939 510:0.56558758 511:0.5586462 512:0.59638602 513:0.69453073 514:0.6064629 515:0.46365514 516:0.41681021 517:0.53154802 518:0.56148851 519:0.5740484 520:0.49909905 521:0.52548158 522:0.62330687 523:0.72588515 524:0.71640623 525:0.74593407 526:0.69740748 527:0.65038592 528:0.68463111 529:0.81008983 530:0.88641536 531:0.90980965 532:0.83505887 533:0.68137693 534:0.60485679 535:0.61238879 536:0.72225338 537:0.84107119 538:0.78586864 539:0.7016679 540:0.60660547 541:0.63529611 542:0.70330495 543:0.69684088 544:0.72110307 545:0.72875816 546:0.77128053 547:0.83984846 548:0.80459911 549:0.80620193 550:0.89308113 551:0.9136911 552:0.97066432 553:0.91475964 554:0.90774685 555:0.84997761 556:0.91857302 557:0.86836535 558:0.7820974 559:0.76118249 560:0.71008515 561:0.69247043 562:0.73819619 563:0.63605225 564:0.56526321 565:0.55686319 566:0.45007288 567:0.42356655 568:0.44517782 569:0.51444978 570:0.56116277 571:0.56414914 572:0.46979192 573:0.39507142 574:0.32411957 575:0.310702 576:0.41001278 577:0.61114615 578:0.77650869 579:0.83434516 580:0.787709 581:0.76792043 582:0.74759609 583:0.67227125 584:0.5453943 585:0.39965361 586:0.25697976 587:0.19241427 588:0.10441979 589:0.073036201 590:0.09812142 591:0.056130767 592:0.06491819 593:0.10246833 594:0.1411996 595:0.21666074 596:0.18083425 597:0.11244044 598:0.12438914 599:0.15974745 600:0.19849299 601:0.15694863 602:0.1688343 603:0.22444271 604:0.24753082 605:0.26594397 606:0.17887618 607:0.15065001 608:0.18424593 609:0.18385178 610:0.11829318 611:0.11080251 612:0.10743374 613:0.13695753 614:0.16455887 615:0.19682926 616:0.14737535 617:0.18821445 618:0.16691333 619:0.10673738 620:0.072093531 621:0.16197374 622:0.24588841 623:0.27468181 624:0.29995155 625:0.25208068 626:0.15470953 627:0.13149807 628:0.10497721 629:0.15150598 630:0.24207966 631:0.20838888 632:0.14220236 633:0.08202377 634:0.029905798 635:0.028417563 636:0.10609798 637:0.15857071 638:0.14141181 639:0.064854793 640:0.052046172 641:0.076741375 642:0.13620661 643:0.11949306 644:0.12147715 645:0.12509367 646:0.24580765 647:0.3197124 648:0.30665708 649:0.16574338 650:0.13615075 
